tree
version=v2
num_class=1
num_tree_per_iteration=1
label_index=0
max_feature_idx=770
objective=binary sigmoid:1
feature_names=ob_price_long_0_02_csum ob_price_short_0_02_csum ob_long_ratio_0_02 ob_short_ratio_0_02 ob_diff_0_02 ob_price_long_0_0195_csum ob_price_short_0_0195_csum ob_long_ratio_0_0195 ob_short_ratio_0_0195 ob_diff_0_0195 ob_price_long_0_019_csum ob_price_short_0_019_csum ob_long_ratio_0_019 ob_short_ratio_0_019 ob_diff_0_019 ob_price_long_0_0185_csum ob_price_short_0_0185_csum ob_long_ratio_0_0185 ob_short_ratio_0_0185 ob_diff_0_0185 ob_price_long_0_018_csum ob_price_short_0_018_csum ob_long_ratio_0_018 ob_short_ratio_0_018 ob_diff_0_018 ob_price_long_0_0175_csum ob_price_short_0_0175_csum ob_long_ratio_0_0175 ob_short_ratio_0_0175 ob_diff_0_0175 ob_price_long_0_017_csum ob_price_short_0_017_csum ob_long_ratio_0_017 ob_short_ratio_0_017 ob_diff_0_017 ob_price_long_0_0165_csum ob_price_short_0_0165_csum ob_long_ratio_0_0165 ob_short_ratio_0_0165 ob_diff_0_0165 ob_price_long_0_016_csum ob_price_short_0_016_csum ob_long_ratio_0_016 ob_short_ratio_0_016 ob_diff_0_016 ob_price_long_0_0155_csum ob_price_short_0_0155_csum ob_long_ratio_0_0155 ob_short_ratio_0_0155 ob_diff_0_0155 ob_price_long_0_015_csum ob_price_short_0_015_csum ob_long_ratio_0_015 ob_short_ratio_0_015 ob_diff_0_015 ob_price_long_0_0145_csum ob_price_short_0_0145_csum ob_long_ratio_0_0145 ob_short_ratio_0_0145 ob_diff_0_0145 ob_price_long_0_014_csum ob_price_short_0_014_csum ob_long_ratio_0_014 ob_short_ratio_0_014 ob_diff_0_014 ob_price_long_0_0135_csum ob_price_short_0_0135_csum ob_long_ratio_0_0135 ob_short_ratio_0_0135 ob_diff_0_0135 ob_price_long_0_013_csum ob_price_short_0_013_csum ob_long_ratio_0_013 ob_short_ratio_0_013 ob_diff_0_013 ob_price_long_0_0125_csum ob_price_short_0_0125_csum ob_long_ratio_0_0125 ob_short_ratio_0_0125 ob_diff_0_0125 ob_price_long_0_012_csum ob_price_short_0_012_csum ob_long_ratio_0_012 ob_short_ratio_0_012 ob_diff_0_012 ob_price_long_0_0115_csum ob_price_short_0_0115_csum ob_long_ratio_0_0115 ob_short_ratio_0_0115 ob_diff_0_0115 ob_price_long_0_011_csum ob_price_short_0_011_csum ob_long_ratio_0_011 ob_short_ratio_0_011 ob_diff_0_011 ob_price_long_0_0105_csum ob_price_short_0_0105_csum ob_long_ratio_0_0105 ob_short_ratio_0_0105 ob_diff_0_0105 ob_price_long_0_01_csum ob_price_short_0_01_csum ob_long_ratio_0_01 ob_short_ratio_0_01 ob_diff_0_01 ob_price_long_95_csum ob_price_short_95_csum ob_long_ratio_95 ob_short_ratio_95 ob_diff_95 ob_price_long_9_csum ob_price_short_9_csum ob_long_ratio_9 ob_short_ratio_9 ob_diff_9 ob_price_long_85_csum ob_price_short_85_csum ob_long_ratio_85 ob_short_ratio_85 ob_diff_85 ob_price_long_8_csum ob_price_short_8_csum ob_long_ratio_8 ob_short_ratio_8 ob_diff_8 ob_price_long_75_csum ob_price_short_75_csum ob_long_ratio_75 ob_short_ratio_75 ob_diff_75 ob_price_long_7_csum ob_price_short_7_csum ob_long_ratio_7 ob_short_ratio_7 ob_diff_7 ob_price_long_65_csum ob_price_short_65_csum ob_long_ratio_65 ob_short_ratio_65 ob_diff_65 ob_price_long_6_csum ob_price_short_6_csum ob_long_ratio_6 ob_short_ratio_6 ob_diff_6 ob_price_long_55_csum ob_price_short_55_csum ob_long_ratio_55 ob_short_ratio_55 ob_diff_55 ob_price_long_5_csum ob_price_short_5_csum ob_long_ratio_5 ob_short_ratio_5 ob_diff_5 ob_price_long_45_csum ob_price_short_45_csum ob_long_ratio_45 ob_short_ratio_45 ob_diff_45 ob_price_long_4_csum ob_price_short_4_csum ob_long_ratio_4 ob_short_ratio_4 ob_diff_4 ob_price_long_35_csum ob_price_short_35_csum ob_long_ratio_35 ob_short_ratio_35 ob_diff_35 ob_price_long_3_csum ob_price_short_3_csum ob_long_ratio_3 ob_short_ratio_3 ob_diff_3 ob_price_long_25_csum ob_price_short_25_csum ob_long_ratio_25 ob_short_ratio_25 ob_diff_25 ob_price_long_2_csum ob_price_short_2_csum ob_long_ratio_2 ob_short_ratio_2 ob_diff_2 ob_price_long_15_csum ob_price_short_15_csum ob_long_ratio_15 ob_short_ratio_15 ob_diff_15 ob_price_long_1_csum ob_price_short_1_csum ob_long_ratio_1 ob_short_ratio_1 ob_diff_1 ob_price_long_05_csum ob_price_short_05_csum ob_long_ratio_05 ob_short_ratio_05 ob_diff_05 ob_price_long_0_0_csum ob_price_short_0_0_csum ob_long_ratio_0_0 ob_short_ratio_0_0 ob_diff_0_0 ob_price_long_-05_csum ob_price_short_-05_csum ob_long_ratio_-05 ob_short_ratio_-05 ob_diff_-05 ob_price_long_-1_csum ob_price_short_-1_csum ob_long_ratio_-1 ob_short_ratio_-1 ob_diff_-1 ob_price_long_-15_csum ob_price_short_-15_csum ob_long_ratio_-15 ob_short_ratio_-15 ob_diff_-15 ob_price_long_-2_csum ob_price_short_-2_csum ob_long_ratio_-2 ob_short_ratio_-2 ob_diff_-2 ob_price_long_-25_csum ob_price_short_-25_csum ob_long_ratio_-25 ob_short_ratio_-25 ob_diff_-25 ob_price_long_-3_csum ob_price_short_-3_csum ob_long_ratio_-3 ob_short_ratio_-3 ob_diff_-3 ob_price_long_-35_csum ob_price_short_-35_csum ob_long_ratio_-35 ob_short_ratio_-35 ob_diff_-35 ob_price_long_-4_csum ob_price_short_-4_csum ob_long_ratio_-4 ob_short_ratio_-4 ob_diff_-4 ob_price_long_-45_csum ob_price_short_-45_csum ob_long_ratio_-45 ob_short_ratio_-45 ob_diff_-45 ob_price_long_-5_csum ob_price_short_-5_csum ob_long_ratio_-5 ob_short_ratio_-5 ob_diff_-5 ob_price_long_-55_csum ob_price_short_-55_csum ob_long_ratio_-55 ob_short_ratio_-55 ob_diff_-55 ob_price_long_-6_csum ob_price_short_-6_csum ob_long_ratio_-6 ob_short_ratio_-6 ob_diff_-6 ob_price_long_-65_csum ob_price_short_-65_csum ob_long_ratio_-65 ob_short_ratio_-65 ob_diff_-65 ob_price_long_-7_csum ob_price_short_-7_csum ob_long_ratio_-7 ob_short_ratio_-7 ob_diff_-7 ob_price_long_-75_csum ob_price_short_-75_csum ob_long_ratio_-75 ob_short_ratio_-75 ob_diff_-75 ob_price_long_-8_csum ob_price_short_-8_csum ob_long_ratio_-8 ob_short_ratio_-8 ob_diff_-8 ob_price_long_-85_csum ob_price_short_-85_csum ob_long_ratio_-85 ob_short_ratio_-85 ob_diff_-85 ob_price_long_-9_csum ob_price_short_-9_csum ob_long_ratio_-9 ob_short_ratio_-9 ob_diff_-9 ob_price_long_-95_csum ob_price_short_-95_csum ob_long_ratio_-95 ob_short_ratio_-95 ob_diff_-95 ob_price_long_-0_01_csum ob_price_short_-0_01_csum ob_long_ratio_-0_01 ob_short_ratio_-0_01 ob_diff_-0_01 ob_price_long_-0_0105_csum ob_price_short_-0_0105_csum ob_long_ratio_-0_0105 ob_short_ratio_-0_0105 ob_diff_-0_0105 ob_price_long_-0_011_csum ob_price_short_-0_011_csum ob_long_ratio_-0_011 ob_short_ratio_-0_011 ob_diff_-0_011 ob_price_long_-0_0115_csum ob_price_short_-0_0115_csum ob_long_ratio_-0_0115 ob_short_ratio_-0_0115 ob_diff_-0_0115 ob_price_long_-0_012_csum ob_price_short_-0_012_csum ob_long_ratio_-0_012 ob_short_ratio_-0_012 ob_diff_-0_012 ob_price_long_-0_0125_csum ob_price_short_-0_0125_csum ob_long_ratio_-0_0125 ob_short_ratio_-0_0125 ob_diff_-0_0125 ob_price_long_-0_013_csum ob_price_short_-0_013_csum ob_long_ratio_-0_013 ob_short_ratio_-0_013 ob_diff_-0_013 ob_price_long_-0_0135_csum ob_price_short_-0_0135_csum ob_long_ratio_-0_0135 ob_short_ratio_-0_0135 ob_diff_-0_0135 ob_price_long_-0_014_csum ob_price_short_-0_014_csum ob_long_ratio_-0_014 ob_short_ratio_-0_014 ob_diff_-0_014 ob_price_long_-0_0145_csum ob_price_short_-0_0145_csum ob_long_ratio_-0_0145 ob_short_ratio_-0_0145 ob_diff_-0_0145 ob_price_long_-0_015_csum ob_price_short_-0_015_csum ob_long_ratio_-0_015 ob_short_ratio_-0_015 ob_diff_-0_015 ob_price_long_-0_0155_csum ob_price_short_-0_0155_csum ob_long_ratio_-0_0155 ob_short_ratio_-0_0155 ob_diff_-0_0155 ob_price_long_-0_016_csum ob_price_short_-0_016_csum ob_long_ratio_-0_016 ob_short_ratio_-0_016 ob_diff_-0_016 ob_price_long_-0_0165_csum ob_price_short_-0_0165_csum ob_long_ratio_-0_0165 ob_short_ratio_-0_0165 ob_diff_-0_0165 ob_price_long_-0_017_csum ob_price_short_-0_017_csum ob_long_ratio_-0_017 ob_short_ratio_-0_017 ob_diff_-0_017 ob_price_long_-0_0175_csum ob_price_short_-0_0175_csum ob_long_ratio_-0_0175 ob_short_ratio_-0_0175 ob_diff_-0_0175 ob_price_long_-0_018_csum ob_price_short_-0_018_csum ob_long_ratio_-0_018 ob_short_ratio_-0_018 ob_diff_-0_018 ob_price_long_-0_0185_csum ob_price_short_-0_0185_csum ob_long_ratio_-0_0185 ob_short_ratio_-0_0185 ob_diff_-0_0185 ob_price_long_-0_019_csum ob_price_short_-0_019_csum ob_long_ratio_-0_019 ob_short_ratio_-0_019 ob_diff_-0_019 ob_price_long_-0_0195_csum ob_price_short_-0_0195_csum ob_long_ratio_-0_0195 ob_short_ratio_-0_0195 ob_diff_-0_0195 ob_price_long_-0_02_csum ob_price_short_-0_02_csum ob_long_ratio_-0_02 ob_short_ratio_-0_02 ob_diff_-0_02 pos_price_long_0_02_csum pos_price_short_0_02_csum pos_long_ratio_0_02 pos_short_ratio_0_02 pos_price_long_0_0195_csum pos_price_short_0_0195_csum pos_long_ratio_0_0195 pos_short_ratio_0_0195 pos_price_long_0_019_csum pos_price_short_0_019_csum pos_long_ratio_0_019 pos_short_ratio_0_019 pos_price_long_0_0185_csum pos_price_short_0_0185_csum pos_long_ratio_0_0185 pos_short_ratio_0_0185 pos_price_long_0_018_csum pos_price_short_0_018_csum pos_long_ratio_0_018 pos_short_ratio_0_018 pos_price_long_0_0175_csum pos_price_short_0_0175_csum pos_long_ratio_0_0175 pos_short_ratio_0_0175 pos_price_long_0_017_csum pos_price_short_0_017_csum pos_long_ratio_0_017 pos_short_ratio_0_017 pos_price_long_0_0165_csum pos_price_short_0_0165_csum pos_long_ratio_0_0165 pos_short_ratio_0_0165 pos_price_long_0_016_csum pos_price_short_0_016_csum pos_long_ratio_0_016 pos_short_ratio_0_016 pos_price_long_0_0155_csum pos_price_short_0_0155_csum pos_long_ratio_0_0155 pos_short_ratio_0_0155 pos_price_long_0_015_csum pos_price_short_0_015_csum pos_long_ratio_0_015 pos_short_ratio_0_015 pos_price_long_0_0145_csum pos_price_short_0_0145_csum pos_long_ratio_0_0145 pos_short_ratio_0_0145 pos_price_long_0_014_csum pos_price_short_0_014_csum pos_long_ratio_0_014 pos_short_ratio_0_014 pos_price_long_0_0135_csum pos_price_short_0_0135_csum pos_long_ratio_0_0135 pos_short_ratio_0_0135 pos_price_long_0_013_csum pos_price_short_0_013_csum pos_long_ratio_0_013 pos_short_ratio_0_013 pos_price_long_0_0125_csum pos_price_short_0_0125_csum pos_long_ratio_0_0125 pos_short_ratio_0_0125 pos_price_long_0_012_csum pos_price_short_0_012_csum pos_long_ratio_0_012 pos_short_ratio_0_012 pos_price_long_0_0115_csum pos_price_short_0_0115_csum pos_long_ratio_0_0115 pos_short_ratio_0_0115 pos_price_long_0_011_csum pos_price_short_0_011_csum pos_long_ratio_0_011 pos_short_ratio_0_011 pos_price_long_0_0105_csum pos_price_short_0_0105_csum pos_long_ratio_0_0105 pos_short_ratio_0_0105 pos_price_long_0_01_csum pos_price_short_0_01_csum pos_long_ratio_0_01 pos_short_ratio_0_01 pos_price_long_95_csum pos_price_short_95_csum pos_long_ratio_95 pos_short_ratio_95 pos_price_long_9_csum pos_price_short_9_csum pos_long_ratio_9 pos_short_ratio_9 pos_price_long_85_csum pos_price_short_85_csum pos_long_ratio_85 pos_short_ratio_85 pos_price_long_8_csum pos_price_short_8_csum pos_long_ratio_8 pos_short_ratio_8 pos_price_long_75_csum pos_price_short_75_csum pos_long_ratio_75 pos_short_ratio_75 pos_price_long_7_csum pos_price_short_7_csum pos_long_ratio_7 pos_short_ratio_7 pos_price_long_65_csum pos_price_short_65_csum pos_long_ratio_65 pos_short_ratio_65 pos_price_long_6_csum pos_price_short_6_csum pos_long_ratio_6 pos_short_ratio_6 pos_price_long_55_csum pos_price_short_55_csum pos_long_ratio_55 pos_short_ratio_55 pos_price_long_5_csum pos_price_short_5_csum pos_long_ratio_5 pos_short_ratio_5 pos_price_long_45_csum pos_price_short_45_csum pos_long_ratio_45 pos_short_ratio_45 pos_price_long_4_csum pos_price_short_4_csum pos_long_ratio_4 pos_short_ratio_4 pos_price_long_35_csum pos_price_short_35_csum pos_long_ratio_35 pos_short_ratio_35 pos_price_long_3_csum pos_price_short_3_csum pos_long_ratio_3 pos_short_ratio_3 pos_price_long_25_csum pos_price_short_25_csum pos_long_ratio_25 pos_short_ratio_25 pos_price_long_2_csum pos_price_short_2_csum pos_long_ratio_2 pos_short_ratio_2 pos_price_long_15_csum pos_price_short_15_csum pos_long_ratio_15 pos_short_ratio_15 pos_price_long_1_csum pos_price_short_1_csum pos_long_ratio_1 pos_short_ratio_1 pos_price_long_05_csum pos_price_short_05_csum pos_long_ratio_05 pos_short_ratio_05 pos_price_long_0_0_csum pos_price_short_0_0_csum pos_long_ratio_0_0 pos_short_ratio_0_0 pos_price_long_-05_csum pos_price_short_-05_csum pos_long_ratio_-05 pos_short_ratio_-05 pos_diff_-05 pos_price_long_-1_csum pos_price_short_-1_csum pos_long_ratio_-1 pos_short_ratio_-1 pos_diff_-1 pos_price_long_-15_csum pos_price_short_-15_csum pos_long_ratio_-15 pos_short_ratio_-15 pos_diff_-15 pos_price_long_-2_csum pos_price_short_-2_csum pos_long_ratio_-2 pos_short_ratio_-2 pos_diff_-2 pos_price_long_-25_csum pos_price_short_-25_csum pos_long_ratio_-25 pos_short_ratio_-25 pos_diff_-25 pos_price_long_-3_csum pos_price_short_-3_csum pos_long_ratio_-3 pos_short_ratio_-3 pos_diff_-3 pos_price_long_-35_csum pos_price_short_-35_csum pos_long_ratio_-35 pos_short_ratio_-35 pos_diff_-35 pos_price_long_-4_csum pos_price_short_-4_csum pos_long_ratio_-4 pos_short_ratio_-4 pos_diff_-4 pos_price_long_-45_csum pos_price_short_-45_csum pos_long_ratio_-45 pos_short_ratio_-45 pos_diff_-45 pos_price_long_-5_csum pos_price_short_-5_csum pos_long_ratio_-5 pos_short_ratio_-5 pos_diff_-5 pos_price_long_-55_csum pos_price_short_-55_csum pos_long_ratio_-55 pos_short_ratio_-55 pos_diff_-55 pos_price_long_-6_csum pos_price_short_-6_csum pos_long_ratio_-6 pos_short_ratio_-6 pos_diff_-6 pos_price_long_-65_csum pos_price_short_-65_csum pos_long_ratio_-65 pos_short_ratio_-65 pos_diff_-65 pos_price_long_-7_csum pos_price_short_-7_csum pos_long_ratio_-7 pos_short_ratio_-7 pos_diff_-7 pos_price_long_-75_csum pos_price_short_-75_csum pos_long_ratio_-75 pos_short_ratio_-75 pos_diff_-75 pos_price_long_-8_csum pos_price_short_-8_csum pos_long_ratio_-8 pos_short_ratio_-8 pos_diff_-8 pos_price_long_-85_csum pos_price_short_-85_csum pos_long_ratio_-85 pos_short_ratio_-85 pos_diff_-85 pos_price_long_-9_csum pos_price_short_-9_csum pos_long_ratio_-9 pos_short_ratio_-9 pos_diff_-9 pos_price_long_-95_csum pos_price_short_-95_csum pos_long_ratio_-95 pos_short_ratio_-95 pos_diff_-95 pos_price_long_-0_01_csum pos_price_short_-0_01_csum pos_long_ratio_-0_01 pos_short_ratio_-0_01 pos_diff_-0_01 pos_price_long_-0_0105_csum pos_price_short_-0_0105_csum pos_long_ratio_-0_0105 pos_short_ratio_-0_0105 pos_diff_-0_0105 pos_price_long_-0_011_csum pos_price_short_-0_011_csum pos_long_ratio_-0_011 pos_short_ratio_-0_011 pos_diff_-0_011 pos_price_long_-0_0115_csum pos_price_short_-0_0115_csum pos_long_ratio_-0_0115 pos_short_ratio_-0_0115 pos_diff_-0_0115 pos_price_long_-0_012_csum pos_price_short_-0_012_csum pos_long_ratio_-0_012 pos_short_ratio_-0_012 pos_diff_-0_012 pos_price_long_-0_0125_csum pos_price_short_-0_0125_csum pos_long_ratio_-0_0125 pos_short_ratio_-0_0125 pos_diff_-0_0125 pos_price_long_-0_013_csum pos_price_short_-0_013_csum pos_long_ratio_-0_013 pos_short_ratio_-0_013 pos_diff_-0_013 pos_price_long_-0_0135_csum pos_price_short_-0_0135_csum pos_long_ratio_-0_0135 pos_short_ratio_-0_0135 pos_diff_-0_0135 pos_price_long_-0_014_csum pos_price_short_-0_014_csum pos_long_ratio_-0_014 pos_short_ratio_-0_014 pos_diff_-0_014 pos_price_long_-0_0145_csum pos_price_short_-0_0145_csum pos_long_ratio_-0_0145 pos_short_ratio_-0_0145 pos_diff_-0_0145 pos_price_long_-0_015_csum pos_price_short_-0_015_csum pos_long_ratio_-0_015 pos_short_ratio_-0_015 pos_diff_-0_015 pos_price_long_-0_0155_csum pos_price_short_-0_0155_csum pos_long_ratio_-0_0155 pos_short_ratio_-0_0155 pos_diff_-0_0155 pos_price_long_-0_016_csum pos_price_short_-0_016_csum pos_long_ratio_-0_016 pos_short_ratio_-0_016 pos_diff_-0_016 pos_price_long_-0_0165_csum pos_price_short_-0_0165_csum pos_long_ratio_-0_0165 pos_short_ratio_-0_0165 pos_diff_-0_0165 pos_price_long_-0_017_csum pos_price_short_-0_017_csum pos_long_ratio_-0_017 pos_short_ratio_-0_017 pos_diff_-0_017 pos_price_long_-0_0175_csum pos_price_short_-0_0175_csum pos_long_ratio_-0_0175 pos_short_ratio_-0_0175 pos_diff_-0_0175 pos_price_long_-0_018_csum pos_price_short_-0_018_csum pos_long_ratio_-0_018 pos_short_ratio_-0_018 pos_diff_-0_018 pos_price_long_-0_0185_csum pos_price_short_-0_0185_csum pos_long_ratio_-0_0185 pos_short_ratio_-0_0185 pos_diff_-0_0185 pos_price_long_-0_019_csum pos_price_short_-0_019_csum pos_long_ratio_-0_019 pos_short_ratio_-0_019 pos_diff_-0_019 pos_price_long_-0_0195_csum pos_price_short_-0_0195_csum pos_long_ratio_-0_0195 pos_short_ratio_-0_0195 pos_diff_-0_0195 pos_price_long_-0_02_csum pos_price_short_-0_02_csum pos_long_ratio_-0_02 pos_short_ratio_-0_02 pos_diff_-0_02 hour day_of_week
feature_infos=[4.0499999999999998:27.059999999999999] [2.29:25.390000000000001] [0.27057753524329242:0.86859601095033245] [0.13140398904966755:0.72942246475670758] [-12.66:21.870000000000001] [4.0499999999999998:27.059999999999999] [2.29:25.390000000000001] [0.27057753524329242:0.86859601095033245] [0.13140398904966755:0.72942246475670758] [-12.66:21.870000000000001] [4.0499999999999998:27.059999999999999] [2.29:25.390000000000001] [0.27057753524329242:0.86859601095033245] [0.13140398904966755:0.72942246475670758] [-12.66:21.870000000000001] [4.0499999999999998:27.059999999999999] [2.29:25.390000000000001] [0.27057753524329242:0.86859601095033245] [0.13140398904966755:0.72942246475670758] [-12.66:21.870000000000001] [4.0499999999999998:27.059999999999999] [2.29:25.390000000000001] [0.27057753524329242:0.86859601095033245] [0.13140398904966755:0.72942246475670758] [-12.66:21.870000000000001] [4.0499999999999998:27.059999999999999] [2.29:25.390000000000001] [0.27057753524329242:0.86859601095033245] [0.13140398904966755:0.72942246475670758] [-12.66:21.870000000000001] [4.0499999999999998:27.059999999999999] [2.29:25.390000000000001] [0.27057753524329242:0.86859601095033245] [0.13140398904966755:0.72942246475670758] [-12.66:21.870000000000001] [4.0499999999999998:27.059999999999999] [2.29:25.390000000000001] [0.27057753524329242:0.86859601095033245] [0.13140398904966755:0.72942246475670758] [-12.66:21.870000000000001] [4.0499999999999998:27.059999999999999] [2.29:25.390000000000001] [0.27057753524329242:0.86859601095033245] [0.13140398904966755:0.72942246475670758] [-12.66:21.870000000000001] [4.0499999999999998:27.059999999999999] [2.29:25.390000000000001] [0.27057753524329242:0.86859601095033245] [0.13140398904966755:0.72942246475670758] [-12.66:21.870000000000001] [4.0499999999999998:27.059999999999999] [2.29:25.390000000000001] [0.27057753524329242:0.86859601095033245] [0.13140398904966755:0.72942246475670758] [-12.66:21.870000000000001] [4.0499999999999998:27.059999999999999] [2.29:25.390000000000001] [0.27057753524329242:0.86859601095033245] [0.13140398904966755:0.72942246475670758] [-12.66:21.870000000000001] [4.0499999999999998:27.059999999999999] [2.29:25.390000000000001] [0.27057753524329242:0.86859601095033245] [0.13140398904966755:0.72942246475670758] [-12.66:21.870000000000001] [4.0499999999999998:27.059999999999999] [2.29:25.390000000000001] [0.27057753524329242:0.86859601095033245] [0.13140398904966755:0.72942246475670758] [-12.66:21.870000000000001] [4.0499999999999998:27.059999999999999] [2.29:25.390000000000001] [0.27057753524329242:0.86859601095033245] [0.13140398904966755:0.72942246475670758] [-12.66:21.870000000000001] [4.0499999999999998:27.059999999999999] [2.29:25.390000000000001] [0.27057753524329242:0.86859601095033245] [0.13140398904966755:0.72942246475670758] [-12.66:21.870000000000001] [4.0499999999999998:27.059999999999999] [2.29:25.390000000000001] [0.27057753524329242:0.86859601095033245] [0.13140398904966755:0.72942246475670758] [-12.66:21.870000000000001] [4.0499999999999998:27.059999999999999] [2.29:25.390000000000001] [0.27057753524329242:0.86859601095033245] [0.13140398904966755:0.72942246475670758] [-12.66:21.870000000000001] [4.0499999999999998:27.059999999999999] [2.29:25.390000000000001] [0.27057753524329242:0.86859601095033245] [0.13140398904966755:0.72942246475670758] [-12.66:21.870000000000001] [4.0499999999999998:27.059999999999999] [2.29:25.390000000000001] [0.27057753524329242:0.86859601095033245] [0.13140398904966755:0.72942246475670758] [-12.66:21.870000000000001] [4.0499999999999998:27.059999999999999] [2.29:25.390000000000001] [0.27057753524329242:0.86859601095033245] [0.13140398904966755:0.72942246475670758] [-12.66:21.870000000000001] [4.0499999999999998:27.059999999999999] [2.29:25.390000000000001] [0.27057753524329242:0.86859601095033245] [0.13140398904966755:0.72942246475670758] [-12.66:21.870000000000001] [4.0499999999999998:27.059999999999999] [2.29:25.390000000000001] [0.27057753524329242:0.86859601095033245] [0.13140398904966755:0.72942246475670758] [-12.66:21.870000000000001] [4.0499999999999998:27.059999999999999] [2.29:25.390000000000001] [0.27057753524329242:0.86859601095033245] [0.13140398904966755:0.72942246475670758] [-12.66:21.870000000000001] [4.0499999999999998:27.059999999999999] [2.29:25.390000000000001] [0.27057753524329242:0.86859601095033245] [0.13140398904966755:0.72942246475670758] [-12.66:21.870000000000001] [4.0499999999999998:27.059999999999999] [2.29:25.390000000000001] [0.27057753524329242:0.86859601095033245] [0.13140398904966755:0.72942246475670758] [-12.66:21.870000000000001] [4.0499999999999998:27.059999999999999] [2.29:25.390000000000001] [0.27057753524329242:0.86859601095033245] [0.13140398904966755:0.72942246475670758] [-12.66:21.870000000000001] [4.0499999999999998:27.059999999999999] [2.29:25.390000000000001] [0.27057753524329242:0.86859601095033245] [0.13140398904966755:0.72942246475670758] [-12.66:21.870000000000001] [4.0499999999999998:27.059999999999999] [2.29:25.390000000000001] [0.27057753524329242:0.86859601095033245] [0.13140398904966755:0.72942246475670758] [-12.66:21.870000000000001] [4.0499999999999998:27.059999999999999] [2.29:25.390000000000001] [0.27057753524329242:0.86859601095033245] [0.13140398904966755:0.72942246475670758] [-12.66:21.870000000000001] [4.0499999999999998:27.059999999999999] [2.29:25.390000000000001] [0.27057753524329242:0.86859601095033245] [0.13140398904966755:0.72942246475670758] [-12.66:21.870000000000001] [4.0499999999999998:27.059999999999999] [2.29:25.390000000000001] [0.27057753524329242:0.86859601095033245] [0.13140398904966755:0.72942246475670758] [-12.66:21.870000000000001] [4.0499999999999998:27.059999999999999] [2.29:25.390000000000001] [0.27057753524329242:0.86859601095033245] [0.13140398904966755:0.72942246475670758] [-12.66:21.870000000000001] [4.0499999999999998:27.059999999999999] [2.29:25.390000000000001] [0.27057753524329242:0.86859601095033245] [0.13140398904966755:0.72942246475670758] [-12.66:21.870000000000001] [4.0499999999999998:27.059999999999999] [2.29:25.390000000000001] [0.27057753524329242:0.86859601095033245] [0.13140398904966755:0.72942246475670758] [-12.66:21.870000000000001] [4.0499999999999998:27.059999999999999] [2.29:25.390000000000001] [0.27057753524329242:0.86859601095033245] [0.13140398904966755:0.72942246475670758] [-12.66:21.870000000000001] [4.0499999999999998:27.059999999999999] [2.29:25.390000000000001] [0.27057753524329242:0.86859601095033245] [0.13140398904966755:0.72942246475670758] [-12.66:21.870000000000001] [4.0499999999999998:27.059999999999999] [2.29:25.390000000000001] [0.27057753524329242:0.86859601095033245] [0.13140398904966755:0.72942246475670758] [-12.66:21.870000000000001] [4.0499999999999998:27.059999999999999] [2.29:25.390000000000001] [0.27057753524329242:0.86859601095033245] [0.13140398904966755:0.72942246475670758] [-12.66:21.870000000000001] [4.0499999999999998:27.059999999999999] [2.29:25.390000000000001] [0.27057753524329242:0.86859601095033245] [0.13140398904966755:0.72942246475670758] [-12.66:21.870000000000001] [4.0499999999999998:27.059999999999999] [2.29:25.390000000000001] [0.27057753524329242:0.86859601095033245] [0.13140398904966755:0.72942246475670758] [-12.66:21.870000000000001] [2.5:20.190000000000001] [2.3300000000000001:22.809999999999999] [0.1686700271423032:0.68513513513513513] [0.31486486486486492:0.83132997285769683] [-17.34:8.3899999999999988] [2.5:20.190000000000001] [2.3300000000000001:22.809999999999999] [0.1686700271423032:0.68513513513513513] [0.31486486486486492:0.83132997285769683] [-17.34:8.3899999999999988] [2.5:20.190000000000001] [2.3300000000000001:22.809999999999999] [0.1686700271423032:0.68513513513513513] [0.31486486486486492:0.83132997285769683] [-17.34:8.3899999999999988] [2.5:20.190000000000001] [2.3300000000000001:22.809999999999999] [0.1686700271423032:0.68513513513513513] [0.31486486486486492:0.83132997285769683] [-17.34:8.3899999999999988] [2.5:20.190000000000001] [2.3300000000000001:22.809999999999999] [0.1686700271423032:0.68513513513513513] [0.31486486486486492:0.83132997285769683] [-17.34:8.3899999999999988] [2.5:20.190000000000001] [2.3300000000000001:22.809999999999999] [0.1686700271423032:0.68513513513513513] [0.31486486486486492:0.83132997285769683] [-17.34:8.3899999999999988] [2.5:20.190000000000001] [2.3300000000000001:22.809999999999999] [0.1686700271423032:0.68513513513513513] [0.31486486486486492:0.83132997285769683] [-17.34:8.3899999999999988] [2.5:20.190000000000001] [2.3300000000000001:22.809999999999999] [0.1686700271423032:0.68513513513513513] [0.31486486486486492:0.83132997285769683] [-17.34:8.3899999999999988] [2.5:20.190000000000001] [2.3300000000000001:22.809999999999999] [0.1686700271423032:0.68513513513513513] [0.31486486486486492:0.83132997285769683] [-17.34:8.3899999999999988] [2.5:20.190000000000001] [2.3300000000000001:22.809999999999999] [0.1686700271423032:0.68513513513513513] [0.31486486486486492:0.83132997285769683] [-17.34:8.3899999999999988] [2.5:20.190000000000001] [2.3300000000000001:22.809999999999999] [0.1686700271423032:0.68513513513513513] [0.31486486486486492:0.83132997285769683] [-17.34:8.3899999999999988] [2.5:20.190000000000001] [2.3300000000000001:22.809999999999999] [0.1686700271423032:0.68513513513513513] [0.31486486486486492:0.83132997285769683] [-17.34:8.3899999999999988] [2.5:20.190000000000001] [2.3300000000000001:22.809999999999999] [0.1686700271423032:0.68513513513513513] [0.31486486486486492:0.83132997285769683] [-17.34:8.3899999999999988] [2.5:20.190000000000001] [2.3300000000000001:22.809999999999999] [0.1686700271423032:0.68513513513513513] [0.31486486486486492:0.83132997285769683] [-17.34:8.3899999999999988] [2.5:20.190000000000001] [2.3300000000000001:22.809999999999999] [0.1686700271423032:0.68513513513513513] [0.31486486486486492:0.83132997285769683] [-17.34:8.3899999999999988] [2.5:20.190000000000001] [2.3300000000000001:22.809999999999999] [0.1686700271423032:0.68513513513513513] [0.31486486486486492:0.83132997285769683] [-17.34:8.3899999999999988] [2.5:20.190000000000001] [2.3300000000000001:22.809999999999999] [0.1686700271423032:0.68513513513513513] [0.31486486486486492:0.83132997285769683] [-17.34:8.3899999999999988] [2.5:20.190000000000001] [2.3300000000000001:22.809999999999999] [0.1686700271423032:0.68513513513513513] [0.31486486486486492:0.83132997285769683] [-17.34:8.3899999999999988] [2.5:20.190000000000001] [2.3300000000000001:22.809999999999999] [0.1686700271423032:0.68513513513513513] [0.31486486486486492:0.83132997285769683] [-17.34:8.3899999999999988] [2.5:20.190000000000001] [2.3300000000000001:22.809999999999999] [0.1686700271423032:0.68513513513513513] [0.31486486486486492:0.83132997285769683] [-17.34:8.3899999999999988] [2.5:20.190000000000001] [2.3300000000000001:22.809999999999999] [0.1686700271423032:0.68513513513513513] [0.31486486486486492:0.83132997285769683] [-17.34:8.3899999999999988] [2.5:20.190000000000001] [2.3300000000000001:22.809999999999999] [0.1686700271423032:0.68513513513513513] [0.31486486486486492:0.83132997285769683] [-17.34:8.3899999999999988] [2.5:20.190000000000001] [2.3300000000000001:22.809999999999999] [0.1686700271423032:0.68513513513513513] [0.31486486486486492:0.83132997285769683] [-17.34:8.3899999999999988] [2.5:20.190000000000001] [2.3300000000000001:22.809999999999999] [0.1686700271423032:0.68513513513513513] [0.31486486486486492:0.83132997285769683] [-17.34:8.3899999999999988] [2.5:20.190000000000001] [2.3300000000000001:22.809999999999999] [0.1686700271423032:0.68513513513513513] [0.31486486486486492:0.83132997285769683] [-17.34:8.3899999999999988] [2.5:20.190000000000001] [2.3300000000000001:22.809999999999999] [0.1686700271423032:0.68513513513513513] [0.31486486486486492:0.83132997285769683] [-17.34:8.3899999999999988] [2.5:20.190000000000001] [2.3300000000000001:22.809999999999999] [0.1686700271423032:0.68513513513513513] [0.31486486486486492:0.83132997285769683] [-17.34:8.3899999999999988] [2.5:20.190000000000001] [2.3300000000000001:22.809999999999999] [0.1686700271423032:0.68513513513513513] [0.31486486486486492:0.83132997285769683] [-17.34:8.3899999999999988] [2.5:20.190000000000001] [2.3300000000000001:22.809999999999999] [0.1686700271423032:0.68513513513513513] [0.31486486486486492:0.83132997285769683] [-17.34:8.3899999999999988] [2.5:20.190000000000001] [2.3300000000000001:22.809999999999999] [0.1686700271423032:0.68513513513513513] [0.31486486486486492:0.83132997285769683] [-17.34:8.3899999999999988] [2.5:20.190000000000001] [2.3300000000000001:22.809999999999999] [0.1686700271423032:0.68513513513513513] [0.31486486486486492:0.83132997285769683] [-17.34:8.3899999999999988] [2.5:20.190000000000001] [2.3300000000000001:22.809999999999999] [0.1686700271423032:0.68513513513513513] [0.31486486486486492:0.83132997285769683] [-17.34:8.3899999999999988] [2.5:20.190000000000001] [2.3300000000000001:22.809999999999999] [0.1686700271423032:0.68513513513513513] [0.31486486486486492:0.83132997285769683] [-17.34:8.3899999999999988] [2.5:20.190000000000001] [2.3300000000000001:22.809999999999999] [0.1686700271423032:0.68513513513513513] [0.31486486486486492:0.83132997285769683] [-17.34:8.3899999999999988] [2.5:20.190000000000001] [2.3300000000000001:22.809999999999999] [0.1686700271423032:0.68513513513513513] [0.31486486486486492:0.83132997285769683] [-17.34:8.3899999999999988] [2.5:20.190000000000001] [2.3300000000000001:22.809999999999999] [0.1686700271423032:0.68513513513513513] [0.31486486486486492:0.83132997285769683] [-17.34:8.3899999999999988] [2.5:20.190000000000001] [2.3300000000000001:22.809999999999999] [0.1686700271423032:0.68513513513513513] [0.31486486486486492:0.83132997285769683] [-17.34:8.3899999999999988] [2.5:20.190000000000001] [2.3300000000000001:22.809999999999999] [0.1686700271423032:0.68513513513513513] [0.31486486486486492:0.83132997285769683] [-17.34:8.3899999999999988] [2.5:20.190000000000001] [2.3300000000000001:22.809999999999999] [0.1686700271423032:0.68513513513513513] [0.31486486486486492:0.83132997285769683] [-17.34:8.3899999999999988] [2.5:20.190000000000001] [2.3300000000000001:22.809999999999999] [0.1686700271423032:0.68513513513513513] [0.31486486486486492:0.83132997285769683] [-17.34:8.3899999999999988] [0.14000000000000001:40.039999999999999] [0.56999999999999995:50.390000000000001] [0.053677932405566613:0.64735099337748347] [0.35264900662251653:0.9463220675944336] [0.14000000000000001:40.039999999999999] [0.56999999999999995:50.390000000000001] [0.053677932405566613:0.64735099337748347] [0.35264900662251653:0.9463220675944336] [0.14000000000000001:40.039999999999999] [0.56999999999999995:50.390000000000001] [0.053677932405566613:0.64735099337748347] [0.35264900662251653:0.9463220675944336] [0.14000000000000001:40.039999999999999] [0.56999999999999995:50.390000000000001] [0.053677932405566613:0.64735099337748347] [0.35264900662251653:0.9463220675944336] [0.14000000000000001:40.039999999999999] [0.56999999999999995:50.390000000000001] [0.053677932405566613:0.64735099337748347] [0.35264900662251653:0.9463220675944336] [0.14000000000000001:40.039999999999999] [0.56999999999999995:50.390000000000001] [0.053677932405566613:0.64735099337748347] [0.35264900662251653:0.9463220675944336] [0.14000000000000001:40.039999999999999] [0.56999999999999995:50.390000000000001] [0.053677932405566613:0.64735099337748347] [0.35264900662251653:0.9463220675944336] [0.14000000000000001:40.039999999999999] [0.56999999999999995:50.390000000000001] [0.053677932405566613:0.64735099337748347] [0.35264900662251653:0.9463220675944336] [0.14000000000000001:40.039999999999999] [0.56999999999999995:50.390000000000001] [0.053677932405566613:0.64735099337748347] [0.35264900662251653:0.9463220675944336] [0.14000000000000001:40.039999999999999] [0.56999999999999995:50.390000000000001] [0.053677932405566613:0.64735099337748347] [0.35264900662251653:0.9463220675944336] [0.14000000000000001:40.039999999999999] [0.56999999999999995:50.390000000000001] [0.053677932405566613:0.64735099337748347] [0.35264900662251653:0.9463220675944336] [0.14000000000000001:40.039999999999999] [0.56999999999999995:50.390000000000001] [0.053677932405566613:0.64735099337748347] [0.35264900662251653:0.9463220675944336] [0.14000000000000001:40.039999999999999] [0.56999999999999995:50.390000000000001] [0.053677932405566613:0.64735099337748347] [0.35264900662251653:0.9463220675944336] [0.14000000000000001:40.039999999999999] [0.56999999999999995:50.390000000000001] [0.053677932405566613:0.64735099337748347] [0.35264900662251653:0.9463220675944336] [0.14000000000000001:40.039999999999999] [0.56999999999999995:50.390000000000001] [0.053677932405566613:0.64735099337748347] [0.35264900662251653:0.9463220675944336] [0.14000000000000001:40.039999999999999] [0.56999999999999995:50.390000000000001] [0.053677932405566613:0.64735099337748347] [0.35264900662251653:0.9463220675944336] [0.14000000000000001:40.039999999999999] [0.56999999999999995:50.390000000000001] [0.053677932405566613:0.64735099337748347] [0.35264900662251653:0.9463220675944336] [0.14000000000000001:40.039999999999999] [0.56999999999999995:50.390000000000001] [0.053677932405566613:0.64735099337748347] [0.35264900662251653:0.9463220675944336] [0.14000000000000001:40.039999999999999] [0.56999999999999995:50.390000000000001] [0.053677932405566613:0.64735099337748347] [0.35264900662251653:0.9463220675944336] [0.14000000000000001:40.039999999999999] [0.56999999999999995:50.390000000000001] [0.053677932405566613:0.64735099337748347] [0.35264900662251653:0.9463220675944336] [0.14000000000000001:40.039999999999999] [0.56999999999999995:50.390000000000001] [0.053677932405566613:0.64735099337748347] [0.35264900662251653:0.9463220675944336] [0.14000000000000001:40.039999999999999] [0.56999999999999995:50.390000000000001] [0.053677932405566613:0.64735099337748347] [0.35264900662251653:0.9463220675944336] [0.14000000000000001:40.039999999999999] [0.56999999999999995:50.390000000000001] [0.053677932405566613:0.64735099337748347] [0.35264900662251653:0.9463220675944336] [0.14000000000000001:40.039999999999999] [0.56999999999999995:50.390000000000001] [0.053677932405566613:0.64735099337748347] [0.35264900662251653:0.9463220675944336] [0.14000000000000001:40.039999999999999] [0.56999999999999995:50.390000000000001] [0.053677932405566613:0.64735099337748347] [0.35264900662251653:0.9463220675944336] [0.14000000000000001:40.039999999999999] [0.56999999999999995:50.390000000000001] [0.053677932405566613:0.64735099337748347] [0.35264900662251653:0.9463220675944336] [0.14000000000000001:40.039999999999999] [0.56999999999999995:50.390000000000001] [0.053677932405566613:0.64735099337748347] [0.35264900662251653:0.9463220675944336] [0.14000000000000001:40.039999999999999] [0.56999999999999995:50.390000000000001] [0.053677932405566613:0.64735099337748347] [0.35264900662251653:0.9463220675944336] [0.14000000000000001:40.039999999999999] [0.56999999999999995:50.390000000000001] [0.053677932405566613:0.64735099337748347] [0.35264900662251653:0.9463220675944336] [0.14000000000000001:40.039999999999999] [0.56999999999999995:50.390000000000001] [0.053677932405566613:0.64735099337748347] [0.35264900662251653:0.9463220675944336] [0.14000000000000001:40.039999999999999] [0.56999999999999995:50.390000000000001] [0.053677932405566613:0.64735099337748347] [0.35264900662251653:0.9463220675944336] [0.14000000000000001:40.039999999999999] [0.56999999999999995:50.390000000000001] [0.053677932405566613:0.64735099337748347] [0.35264900662251653:0.9463220675944336] [0.14000000000000001:40.039999999999999] [0.56999999999999995:50.390000000000001] [0.053677932405566613:0.64735099337748347] [0.35264900662251653:0.9463220675944336] [0.14000000000000001:40.039999999999999] [0.56999999999999995:50.390000000000001] [0.053677932405566613:0.64735099337748347] [0.35264900662251653:0.9463220675944336] [0.14000000000000001:40.039999999999999] [0.56999999999999995:50.390000000000001] [0.053677932405566613:0.64735099337748347] [0.35264900662251653:0.9463220675944336] [0.14000000000000001:40.039999999999999] [0.56999999999999995:50.390000000000001] [0.053677932405566613:0.64735099337748347] [0.35264900662251653:0.9463220675944336] [0.14000000000000001:40.039999999999999] [0.56999999999999995:50.390000000000001] [0.053677932405566613:0.64735099337748347] [0.35264900662251653:0.9463220675944336] [0.14000000000000001:40.039999999999999] [0.56999999999999995:50.390000000000001] [0.053677932405566613:0.64735099337748347] [0.35264900662251653:0.9463220675944336] [0.14000000000000001:40.039999999999999] [0.56999999999999995:50.390000000000001] [0.053677932405566613:0.64735099337748347] [0.35264900662251653:0.9463220675944336] [0.14000000000000001:40.039999999999999] [0.56999999999999995:50.390000000000001] [0.053677932405566613:0.64735099337748347] [0.35264900662251653:0.9463220675944336] [0.14000000000000001:40.039999999999999] [0.56999999999999995:50.390000000000001] [0.053677932405566613:0.64735099337748347] [0.35264900662251653:0.9463220675944336] [0.01:47.439999999999998] [0:40.270000000000003] [0.30510585305105847:1] [0:0.69489414694894136] [-14.060000000000002:29.460000000000001] [0.01:47.439999999999998] [0:40.270000000000003] [0.30510585305105847:1] [0:0.69489414694894136] [-14.060000000000002:29.460000000000001] [0.01:47.439999999999998] [0:40.270000000000003] [0.30510585305105847:1] [0:0.69489414694894136] [-14.060000000000002:29.460000000000001] [0.01:47.439999999999998] [0:40.270000000000003] [0.30510585305105847:1] [0:0.69489414694894136] [-14.060000000000002:29.460000000000001] [0.01:47.439999999999998] [0:40.270000000000003] [0.30510585305105847:1] [0:0.69489414694894136] [-14.060000000000002:29.460000000000001] [0.01:47.439999999999998] [0:40.270000000000003] [0.30510585305105847:1] [0:0.69489414694894136] [-14.060000000000002:29.460000000000001] [0.01:47.439999999999998] [0:40.270000000000003] [0.30510585305105847:1] [0:0.69489414694894136] [-14.060000000000002:29.460000000000001] [0.01:47.439999999999998] [0:40.270000000000003] [0.30510585305105847:1] [0:0.69489414694894136] [-14.060000000000002:29.460000000000001] [0.01:47.439999999999998] [0:40.270000000000003] [0.30510585305105847:1] [0:0.69489414694894136] [-14.060000000000002:29.460000000000001] [0.01:47.439999999999998] [0:40.270000000000003] [0.30510585305105847:1] [0:0.69489414694894136] [-14.060000000000002:29.460000000000001] [0.01:47.439999999999998] [0:40.270000000000003] [0.30510585305105847:1] [0:0.69489414694894136] [-14.060000000000002:29.460000000000001] [0.01:47.439999999999998] [0:40.270000000000003] [0.30510585305105847:1] [0:0.69489414694894136] [-14.060000000000002:29.460000000000001] [0.01:47.439999999999998] [0:40.270000000000003] [0.30510585305105847:1] [0:0.69489414694894136] [-14.060000000000002:29.460000000000001] [0.01:47.439999999999998] [0:40.270000000000003] [0.30510585305105847:1] [0:0.69489414694894136] [-14.060000000000002:29.460000000000001] [0.01:47.439999999999998] [0:40.270000000000003] [0.30510585305105847:1] [0:0.69489414694894136] [-14.060000000000002:29.460000000000001] [0.01:47.439999999999998] [0:40.270000000000003] [0.30510585305105847:1] [0:0.69489414694894136] [-14.060000000000002:29.460000000000001] [0.01:47.439999999999998] [0:40.270000000000003] [0.30510585305105847:1] [0:0.69489414694894136] [-14.060000000000002:29.460000000000001] [0.01:47.439999999999998] [0:40.270000000000003] [0.30510585305105847:1] [0:0.69489414694894136] [-14.060000000000002:29.460000000000001] [0.01:47.439999999999998] [0:40.270000000000003] [0.30510585305105847:1] [0:0.69489414694894136] [-14.060000000000002:29.460000000000001] [0.01:47.439999999999998] [0:40.270000000000003] [0.30510585305105847:1] [0:0.69489414694894136] [-14.060000000000002:29.460000000000001] [0.01:47.439999999999998] [0:40.270000000000003] [0.30510585305105847:1] [0:0.69489414694894136] [-14.060000000000002:29.460000000000001] [0.01:47.439999999999998] [0:40.270000000000003] [0.30510585305105847:1] [0:0.69489414694894136] [-14.060000000000002:29.460000000000001] [0.01:47.439999999999998] [0:40.270000000000003] [0.30510585305105847:1] [0:0.69489414694894136] [-14.060000000000002:29.460000000000001] [0.01:47.439999999999998] [0:40.270000000000003] [0.30510585305105847:1] [0:0.69489414694894136] [-14.060000000000002:29.460000000000001] [0.01:47.439999999999998] [0:40.270000000000003] [0.30510585305105847:1] [0:0.69489414694894136] [-14.060000000000002:29.460000000000001] [0.01:47.439999999999998] [0:40.270000000000003] [0.30510585305105847:1] [0:0.69489414694894136] [-14.060000000000002:29.460000000000001] [0.01:47.439999999999998] [0:40.270000000000003] [0.30510585305105847:1] [0:0.69489414694894136] [-14.060000000000002:29.460000000000001] [0.01:47.439999999999998] [0:40.270000000000003] [0.30510585305105847:1] [0:0.69489414694894136] [-14.060000000000002:29.460000000000001] [0.01:47.439999999999998] [0:40.270000000000003] [0.30510585305105847:1] [0:0.69489414694894136] [-14.060000000000002:29.460000000000001] [0.01:47.439999999999998] [0:40.270000000000003] [0.30510585305105847:1] [0:0.69489414694894136] [-14.060000000000002:29.460000000000001] [0.01:47.439999999999998] [0:40.270000000000003] [0.30510585305105847:1] [0:0.69489414694894136] [-14.060000000000002:29.460000000000001] [0.01:47.439999999999998] [0:40.270000000000003] [0.30510585305105847:1] [0:0.69489414694894136] [-14.060000000000002:29.460000000000001] [0.01:47.439999999999998] [0:40.270000000000003] [0.30510585305105847:1] [0:0.69489414694894136] [-14.060000000000002:29.460000000000001] [0.01:47.439999999999998] [0:40.270000000000003] [0.30510585305105847:1] [0:0.69489414694894136] [-14.060000000000002:29.460000000000001] [0.01:47.439999999999998] [0:40.270000000000003] [0.30510585305105847:1] [0:0.69489414694894136] [-14.060000000000002:29.460000000000001] [0.01:47.439999999999998] [0:40.270000000000003] [0.30510585305105847:1] [0:0.69489414694894136] [-14.060000000000002:29.460000000000001] [0.01:47.439999999999998] [0:40.270000000000003] [0.30510585305105847:1] [0:0.69489414694894136] [-14.060000000000002:29.460000000000001] [0.01:47.439999999999998] [0:40.270000000000003] [0.30510585305105847:1] [0:0.69489414694894136] [-14.060000000000002:29.460000000000001] [0.01:47.439999999999998] [0:40.270000000000003] [0.30510585305105847:1] [0:0.69489414694894136] [-14.060000000000002:29.460000000000001] [0.01:47.439999999999998] [0:40.270000000000003] [0.30510585305105847:1] [0:0.69489414694894136] [-14.060000000000002:29.460000000000001] [0:23] [0:6]
tree_sizes=1711 1728 1702 1721 1709 1680 1710 1697 1722 1728 1717 1704 1715 1722 1719 1716 1701 1724 1713 1713 1711 1716 1708 1718 1695 1708 1725 1714 1704 1703 1712 1723 1723 1700 1711 1725 1721 1722 1724 1716 1713 1693 1707 1715 1712 1689 1742 1714 1715 1735 1705 1740 1707 1709 1728 1679 1704 1717 1708 1714 1701 1699 1700 1717 1696 1699 1713 1731 1714 1708 1669 1703 1697 1728 1711 1699 1685 1698 1713 1724 1716 1717 1696 1716 1714 1728 1715 1713 1743 1689 1714 1682 1708 1679 1713 1708 1695 1710 1718 1698 1713 1738 1723 1704 1714 1713 1688 1711 1718 1724 1693 1689 1719 1728 1677 1698 1694 1714 1689 1714 1702 1704 1712 1728 1715 1725 1702 1701 1692 1719 1726 1710 1714 1710 1704 1718 1727 1707 1718 1698 1703 1703 1727 1700 1717 1732 1690 1696 1706 1719 1709 1700 1703 1732 1715 1713 1688 1713 1726 1689 1705 1710 1682 1700 1693 1720 1709 1722 1698 1721 1731 1684 1721 1728 1717 1698 1718 1707 1707 1707 1709 1731 1711 1704 1704 1715 1700 1704 1701 1736 1689 1721 1701 1701 1703 1699 1706 1706 1677 1713 1713 1706 1696 1701 1715 1711 1697 1690 1707 1695 1673 1733 1743 1725 1709 1709 1703 1732 1693 1731 1722 1720 1725 1687 1721 1712 1707 1715 1722 1687 1702 1717 1701 1713 1679 1730 1713 1694 1687 1703 1689 1722 1714 1723 1677 1704 1709 1715 1697 1712 1706 1701 1715 1724 1689 1689 1676 1715 1741 1681 1678 1690 1694 1699 1720 1711 1710 1692 1726 1701 1703 1730 1683 1717 1728 1706 1710 1707 1709 1728 1725 1737 1719 1705 1728 1706 1687 1694 1707 1705 1719 1705 1713 1697 1716 1712 1706 1723 1725 1714 1715 1711 1708 1707 1704 1699 1692 1728 1718 1722 1705 1722 1711 1683 1716 1706 1703 1705 1715 1720 1722 1728 1729 1707 1704 1728 1703 1737 1703 1698 1719 1719 1677 1703 1724 1714 1687 1705 1704 1679 1704 1712 1678 1697 1707 1715 1731 1706 1702 1718 1682 1688 1722 1725 1710 1709 1693 1731 1724 1716 1677 1717 1698 1700 1686 1702 1679 1704 1732 1693 1725 1711 1719 1686 1723 1700 1713 1729 1716 1683 1710 1714 1706 1693 1710 1695 1728 1713 1693 1722 1696 1696 1719 1719 1729 1679 1723 1725 1713 1719 1712 1699 1716 1713 1720 1710 1700 1712 1701 1699 1718 1710 1725 1708 1708 1717 1683 1676 1714 1712 1709 1705 1707 1703 1701 1722 1700 1701 1708 1728 1664 1725 1710 1725 1722 1699 1720 1686 1708 1703 1708 1706 1735 1718 1714 1725 1702 1706 1716 1717 1698 1723 1731 1710 1715 1722 1689 1696 1709 1714 1724 1705 1728 1713 1703 1686 1700 1706 1693 1714 1715 1724 1709 1693 1707 1724 1699 1712 1713 1709 1730 1685 1706 1703 1679 1702 1694 1706 1707 1719 1720 1726 1712 1721 1709 1712 1706 1715 1699 1716 1694 1717 1694 1713 1713 1724 1715 1697 1740 1719 1707 1689 1702 1704 1700 1694 1710 1738 1718 1712 1710 1689 1692 1699 1712 1721 1700 1730 1723 1733 1702 1702 1692 1715 1724 1700 1724 1710 1708 1726 1711 1723 1691 1727 1698 1703 1716 1691 1683 1710 1729 1714 1711 1729 1702 1684 1713 1707 1710 1719 1714 1689 1711 1714 1709 1694 1720 1704 1695 1724 1722 1703 1722 1703 1720 1703 1698 1704 1701 1725 1705 1697 1710 1675 1708 1714 1700 1698 1710 1693 1719 1687 1704 1672 1713 1713 1699 1694 1641 1710 1697 1722 1697 1729 1705 1693 1716 1692 1724 1711 1694 1689 1725 1719 1676 1718 1724 1709 1733 1671 1724 1694 1698 1676 1731 1690 1691 1678 1707 1711 1686 1724 1700 1731 1731 1709 1681 1715 1708 1708 1731 1707 1691 1701 1708 1728 1709 1719 1709 1707 1733 1696 1707 1675 1710 1721 1708 1706 1696 1695 1701 1700 1707 1705 1707 1694 1712 1689 1691 1710 1709 1697 1717 1686 1680 1706 1709 1707 1698 1723 1722 1692 1694 1693 1003 1720 1691 1466 1689 1685 1685 1708 1702 1723 1709 1722 1708 1726 1719 1698 1736 1713 1712 1725 1696 1707 1716 1688 1722 1725 1717 1725 1687 1741 1721 1707 1735 1717 1679 1463 1692 1705 1718 1718 1727 1720 1694 1721 1735 1696 1720 1691 1703 1708 1686 1713 1702 1732 1694 1717 1735 1688 1712 1706 1711 1712 1694 1710 1720 1676 1716 1724 1710 1701 1714 1720 1724 1718 1692 1730 1718 1672 1711 1701 1690 1713 1706 1704 1719 1712 1703 1688 1702 1721 1698 1714 1720 1700 1747 1709 1712 1681 679 1705 1728 1708 1693 1704 1702 1695 1723 1688 1717 1698 1700 1719 1695 1703 1711 1721 1709 1719 1715 1690 1701 1715 1718 1711 1708 1717 1729 1716 1708 1711 1722 1690 1707 1699 1677 1708 1708 1677 1730 1682 1702 1690 1698 1729 1716 1721 1719 1709 1699 1704 1711 1712 1720 1717 1708 1716 1693 1699 1666 1694 1689 1664 1733 1705 1695 1688 1673 1717 1734 1718 1693 1679 1701 1723 1691 1708 1708 1729 1708 1698 1739 1724 1709 1673 1714 1709 1735 1702 1713 1686 1714 1714 522 1722 1697 1702 1726 1705 1697 1712 1708 1716 1699 1700 1727 1698 1699 1698 1719 1720 1701 1708 1706 1719 1675 1688 1708 1670 1695 1714 1716 1732 1712 1684 1697 1686 1702 1708 1626 1713 1709 1478 1682 1691 1720 361 1471 1711 1711 1701 1703 1710 1717 1725 1725 1725 1702 1698 1717 1721 1683 1711 428 1712 1705 1058 1707 1718 1707 1680 1725 1711 1736 1724 1674 1742 354 1698 1715 1687 1696 1690 1672 1711 1722 1703 1718 1707 1697 1670 1717 1593 1678 1690 1725 1613 1691 1745 1705 1669 1699 1683 1700 1713 1721 1711 1720 1740 1704 1687 1691 1716 1715 1710 1681 1716 1741 506 977 1707 1701 1680 598 1668 590 1689 1719 1722 1716 1755 1686 885 1721 1719 1674 1737 1723 580 1394 1713 1663 1695 1744 1700 1702 500 1713 886 1681 1674 1704 1358 1682 1698 1668 1142 1691 1686 1708 1689 1695 1733 1716 1663 1703 910 1690 936 1718 1435 1735 1715 1741 678 908 361 1700 1692 1715 1743 1703 1727 1709 1701 1705 1687 1682 1734 1651 1707 1672 1715 1679 1705 1676 1702 1668 1708 1676 1711 1680 1716 1700 1699 1708 1722 1726 1706 1724 1662 1735 1394 731 1627 1705 1695 1136 1664 1721 1531 1690 1692 1679 1724 1684 1711 1680 1717 1722 1709 1725 1694 1395 1680 1704 1579 1695 1718 1668 1684 520 1713 1380 1724 1712 1421 1719 1708 1709 1630 1710 1742 1718 1744 1710 738 1721 1697 1690 1706 1716 1709 1675 1692 1721 1686 1680 1726 1632 1687 1685 1735 1713 1698 1631 840 920 1710 1683 1715 1732 1711 736 1692 1701 1692 1698 1689 1704 1694 1654 1725 1710 1695 1709 1711 1161 1685 1736 1710 1713 1706 1630 1005 1718 1705 1713 1734 1684 1564 1682 1705 1736 1681 1717 1570 1745 1327 1727 1716 1389 366 1699 1717 1658 1716 1715 1723 1686 1667 1521 1702 1710 1170 1734 1718 1704 1718 844 1429 1701 1736 897 1682 1702 1712 1720 1744 1150 1739 1708 1725 1676 1697 1726 1678 1734 1710 517 1712 1436 1724 1719 1733 1701 1703 1690 1692 1716 1690 1720 1745 1682 1713 1696 1726 1734 1296 1724 1401 1624 1648 969 1666 1677 1697 1693 1728 1679 1729 1715 687 847 269 1742 1714 1703 1656 1544 1720 1705 1709 1572 1163 1701 1159 1697 1730 1725 1728 1579 1715 1689 1713 1733 1706 1701 1222 1704 351 1673 1732 1707 1728 1719 1337 1767 1734 1702 1240 1716 1694 1678 1720 1709 282 1711 1706 1579 1481 1728 1702 1716 1709 1677 1705 1706 1697 1150 1709 1726 1715 1713 274 1687 1710 1693 1675 1536 1699 1136 1309 900 1728 1675 502 1736 1713 1651 941 1712 880 273 1670 1133 1695 1689 1649 889 1676 1739 933 1659 1564 1673 1718 1708 1665 1696 1732 1729 1685 1689 1701 1733 612 1658 1705 1721 1699 1699 1691 1068 1720 1036 1722 1722 1716 1494 604 1071 1064 1267 353 1071 1693 1674 1713 771 733 1402 1695 1696 1171 1729 419 1707 1728 974 1707 1730 1702 1702 1731 1739 831 1030 1689 1686 1679 1678 1709 342 1667 1671 1701 1727 1740 1678 768 1297 598 1691 1745 1700 1748 1670 1714 1718 1002 1054 1663 1702 1304 1672 1682 1654 1717 1699 749 596 1700 1227 697 992 1530 677 1590 1385 1709 1710 1706 1705 937 1736 1697 764 1712 276 842 899 1078 1276 1734 1674 1747 1264 1688 1686 1480 1706 986 1713 831 1724 1776 1011 1315 947 1727 1719 1705 517 1021 1694 586 1742 598 679 1710 1724 1682 1695 436 1714 1704 777 896 981 921 1744 1725 1742 1709 769 583 1051 1731 1717 1717 446 1377 1697 928 1335 1732 1726 678 1675 1678 906 1725 1729 1708 1704 1665 1705 1708 1625 433 1014 1689 1334 1731 1668 590 1690 1716 805 825 1723 1085 280 752 1693 1740 522 1727 1701 680 1730 363 603 521 1732 1000 672 1718 1691 1738 1726 1730 1677 1708 671 1709 1668 730 1702 1713 1012 1736 1454 1680 784 1715 1723 1728 1692 599 1717 1713 1110 1705 1715 1180 271 1660 1729 1699 766 1702 843 1756 1687 1664 1730 1652 687 1717 1727 1684 1680 1720 1701 1759 995 1675 1700 1552 1732 517 1732 1671 986 1711 820 1727 1693 1278 894 1299 1687 1677 1722 1682 1671 568 363 1695 1721 808 1726 661 1159 1725 1717 1735 1690 1696 343 1713 530 1068 1709 754 1690 1667 1701 1706 1718 1318 667 1640 1747 1738 430 510 1698 1654 1593 1725 722 1482 1007 1701 440 1147 1724 1746 1716 1415 1710 1557 1690 1753 1722 1719 1721 1686 1704 1700 493

Tree=0
num_leaves=20
num_cat=0
split_feature=6 212 6 0 573 410 205 577 24 0 206 569 205 212 410 206 569 569 212
split_gain=49.3607 37.4532 26.0964 25.9318 18.5506 24.206 33.4103 17.5788 16.902 15.7826 25.3108 24.8311 21.9512 16.0506 15.5526 14.0167 14.8157 16.8699 21.218
threshold=7.8450000000000006 0.26482427250886997 16.875000000000004 9.7950000000000017 3.4149999999999996 17.575000000000003 8.0050000000000008 0.41655031681229687 -1.9649999999999996 15.565000000000003 15.385000000000003 26.875000000000004 6.245000000000001 0.53985231908774756 34.955000000000005 14.545000000000002 22.975000000000005 13.735000000000001 0.55638836050609164
decision_type=2 2 2 2 10 8 2 10 2 2 2 10 2 2 10 2 10 8 2
left_child=1 -1 4 -4 5 6 -2 9 -5 13 12 -12 -11 -3 -14 16 17 18 -7
right_child=2 7 3 8 -6 15 -8 -9 -10 10 11 -13 14 -15 -16 -17 -18 -19 -20
leaf_value=-0.0031530813078936336 0.0022151128975773328 -0.0027639904297203882 0.00090618254900890925 -0.0019449771783605879 -1.8635273956062805e-05 -0.00015364944954293627 -0.0013290677385463987 -0.0002298387818538889 -0.0055377822439433358 -0.00010383341707393757 0.0013479868522623638 -0.0015822234982695227 -0.0023580234070984525 0.00080549559911903014 -0.006127520093298337 -0.0041201099894938404 0.0020540137777535273 -0.0032740449169069838 -0.0040200197030107153
leaf_count=529 213 565 132 410 3566 346 280 665 72 128 281 252 155 66 77 100 55 205 81
internal_value=0 -0.465048 -0.131868 -0.527687 -0.0817169 -0.29375 0.0608519 -0.348104 -0.746888 -0.469816 -0.293393 -0.011257 -0.711111 -0.719493 -1.08621 -0.515883 -0.41048 -0.5 -0.266979
internal_count=8178 2718 5460 614 4846 1280 493 2189 482 1524 893 533 360 631 232 787 687 632 427
shrinkage=0.00332267


Tree=1
num_leaves=20
num_cat=0
split_feature=205 578 406 578 569 419 211 406 578 208 208 413 11 570 11 211 569 576 7
split_gain=36.7607 21.6915 20.8791 16.3931 13.9826 28.2961 20.858 24.3987 17.1439 25.8834 20.9145 19.2394 15.9648 16.2425 15.3837 22.3787 15.076 14.6243 13.9302
threshold=5.8250000000000011 19.220000000000002 26.755000000000006 19.220000000000002 30.045000000000005 0.34196372462864627 12.595000000000001 31.345000000000002 11.855000000000002 0.58912928223321404 0.57879941650125188 25.095000000000002 14.595000000000001 5.8050000000000006 12.015000000000002 16.465000000000003 14.575000000000001 0.55484513390157686 0.80045133779721789
decision_type=2 8 10 10 10 10 2 10 10 2 2 10 2 10 2 2 10 10 2
left_child=2 4 3 -1 5 6 12 16 10 -10 11 17 13 -2 15 -12 -8 -7 -4
right_child=1 -3 18 -5 -6 8 7 -9 9 -11 14 -13 -14 -15 -16 -17 -18 -19 -20
leaf_value=0.0031291991912101112 -0.0039636589668707433 0.0019518759374147054 -0.0001365166875946627 -0.0005443479165900977 -0.00044632306393677952 0.0010097575044588204 -0.0022243901114745801 0.0028749150518314567 -0.00050609160430990395 0.0019147264770647361 -0.0025355954122960765 0.0013396742612083569 0.0014181348206242055 -9.3999446119904032e-05 0.00091315740061137702 0.00046062625363440856 0.0010621689191238235 -0.00076405827083380273 0.0035647680275059726
leaf_count=406 51 318 281 63 1334 265 67 351 371 399 441 372 322 789 112 146 1067 968 55
internal_value=0 -0.0765697 -0.536101 -0.818063 -0.053059 -0.0978422 -0.253148 -0.415641 0.0354114 -0.23157 0.124609 -0.00440876 -0.0473737 0.10241 0.422032 0.55646 -0.269697 0.119136 -0.1447
internal_count=8178 7373 805 469 7055 5721 2647 1485 3074 770 2304 1605 1162 840 699 587 1134 1233 336
shrinkage=-0.0032227


Tree=2
num_leaves=20
num_cat=0
split_feature=770 770 5 411 24 574 206 583 406 3 5 209 205 583 572 574 205 209 420
split_gain=126.319 28.072 19.8122 18.4786 15.9454 23.4255 13.0731 12.0482 18.0023 17.1926 27.2144 19.5217 25.7676 19.4938 18.0866 13.3289 14.3043 14.7841 12.7785
threshold=3.5000000000000004 5.0000000000000009 10.415000000000001 0.34196372462864627 2.5400000000000009 11.555000000000001 16.885000000000002 2.5750000000000006 14.775 0.38167237589672204 15.355000000000002 -2.569999999999999 11.785000000000002 6.4050000000000002 0.33483040848450618 14.575000000000001 5.285000000000001 1.0000000180025095e-35 0.6547424619493355
decision_type=2 2 2 10 2 10 2 10 8 2 2 2 2 10 10 8 2 2 10
left_child=7 4 3 -3 -2 -6 -4 8 -1 10 -9 12 13 -12 -11 16 -10 -18 -13
right_child=1 2 6 -5 5 -7 -8 9 15 14 11 18 -14 -15 -16 -17 17 -19 -20
leaf_value=0.0007349219979721262 -0.0024579257180880609 -0.00075008064490002387 -0.00050527823879049666 0.0029826554910950148 0.0023131604265604804 -0.0015534103904421286 -0.0031310906922554114 -0.00111614119073997 -0.0026840888824195747 9.4747090652019778e-05 0.0019139237166033059 6.397884706665593e-05 0.0034124227230142995 3.2805562662651255e-05 0.00093470024655609 -0.0015498772857631951 0.00089438551883171417 -0.0012686556629785363 -0.0034148874095814154
leaf_count=332 656 73 246 83 51 522 77 562 60 1383 183 60 79 1322 1624 367 289 141 68
internal_value=0 -0.556148 -0.131157 0.472262 -0.720492 -0.464543 -0.4283 0.0654907 -0.126601 0.108468 -0.0297258 0.0997056 0.163301 0.102076 0.210395 -0.287785 -0.0614275 0.0716807 -0.68048
internal_count=8178 1708 479 156 1229 573 323 6470 1189 5281 2274 1712 1584 1505 3007 857 490 430 128
shrinkage=0.00261188


Tree=3
num_leaves=20
num_cat=0
split_feature=770 770 0 588 211 211 412 207 13 407 214 211 570 406 576 407 574 14 588
split_gain=48.4368 19.1212 14.6506 11.6968 13.499 25.0794 12.2157 10.7073 11.3223 16.4162 11.1061 6.74615 9.33592 18.4737 16.671 9.2108 14.8444 11.4497 9.05659
threshold=3.5000000000000004 5.0000000000000009 20.175000000000004 4.4450000000000012 15.575000000000001 17.525000000000002 0.65836871560436239 0.29776908690393283 0.40508330959320388 0.38537403984295177 -6.3899999999999997 11.655000000000003 3.2750000000000004 34.175000000000004 0.623806188314452 0.20124787276018244 16.825000000000003 3.2550000000000003 9.6650000000000045
decision_type=2 2 2 10 2 2 10 2 2 10 2 2 10 10 10 10 10 2 10
left_child=11 2 7 -3 6 -6 -5 -2 9 10 -9 15 -13 -14 -15 -1 18 -18 -17
right_child=1 3 -4 4 5 -7 -8 8 -10 -11 -12 12 13 14 -16 16 17 -19 -20
leaf_value=-0.0016220112603992612 -0.003908909566727365 0.0023563612881632649 0.0015453583003814423 0.00029540079082668384 0.0049067033389218534 -0.0024236511799198865 -0.0032511361452313182 0.00079905211642049734 -0.0023104279532259121 0.0036014121701614401 -0.0030302618158646057 0.0016908985649747555 -2.6517074334140081e-05 0.0022404306962072905 -0.0025702205561293863 0.00021456746073619245 0.0010706580439116984 0.0042794272743096684 -0.002384333245010568
leaf_count=126 185 99 71 104 62 58 139 83 695 51 109 172 3754 50 308 1193 758 73 88
internal_value=0 -0.376739 -0.518495 -0.0111115 -0.191164 0.420927 -0.470042 -0.578163 -0.485802 -0.0892489 -0.371785 0.0215948 -0.0295123 -0.0500717 -0.509551 0.117638 0.151053 0.366734 0.00898874
internal_count=8178 1656 1194 462 363 120 243 1123 938 243 192 6522 4284 4112 358 2238 2112 831 1281
shrinkage=0.00368732


Tree=4
num_leaves=20
num_cat=0
split_feature=769 211 16 769 570 573 0 16 215 597 410 413 573 586 16 207 410 413 207
split_gain=48.1895 20.6587 24.9577 19.5317 16.4496 10.8544 10.8669 9.15106 15.0553 11.4282 11.1281 9.69807 9.57422 9.15543 9.41283 8.94007 8.39577 10.8393 9.04295
threshold=9.5000000000000018 13.065000000000003 16.175000000000004 18.500000000000004 13.055000000000001 12.625000000000002 20.175000000000004 7.2950000000000008 7.3350000000000009 0.26267895460536023 30.295000000000005 7.3950000000000005 14.595000000000004 0.68097096296129345 10.435 0.30494071776247594 37.555000000000007 18.575000000000003 0.29776908690393283
decision_type=2 2 2 2 10 10 2 2 2 10 10 8 8 10 2 2 10 10 2
left_child=1 2 -1 -2 -4 16 -7 11 10 -10 15 -5 -13 -11 -15 -9 17 -3 -19
right_child=3 5 4 7 -6 6 -8 8 9 13 -12 12 -14 14 -16 -17 -18 18 -20
leaf_value=-0.0010525749059122698 0.0014250443901927994 0.00021827298774940959 0.0029576191531400543 -0.00011397791663050984 -0.0010403187324486633 0.0015576274890996985 -0.0019591648717561735 -0.00075757349337228237 -0.0010924609604212878 0.00051838998378694889 0.0015284592454908295 0.0015202185456933332 0.0050403882330094718 0.00044575137725865859 0.0041033261464776668 -0.0038453770521015163 0.0023898542640827065 -0.00017055942073269966 -0.0035002904479052924
leaf_count=1326 3082 924 152 171 87 584 52 112 188 601 55 266 53 69 91 100 82 96 87
internal_value=0 0.0126134 0.187682 -0.305695 -0.425287 -0.136673 -0.358971 -0.128256 -0.0298282 -0.152459 0.407581 -0.374385 -0.594125 -0.267409 -0.718278 0.627524 -0.0174524 0.0313875 0.499293
internal_count=8178 3390 1565 4788 239 1825 636 1706 1216 949 267 490 319 761 160 212 1189 1107 183
shrinkage=-0.00352377


Tree=5
num_leaves=20
num_cat=0
split_feature=416 20 585 14 6 406 416 214 206 20 23 573 585 406 14 210 573 577 213
split_gain=11.6168 9.97842 9.90698 27.6291 14.8608 12.8107 11.1509 9.91806 17.8371 12.7674 8.99486 25.6068 9.88183 9.6736 8.73279 8.47589 8.67032 10.4317 8.07997
threshold=0.82147600621450478 7.7150000000000007 23.205000000000002 1.2099999999999997 8.0250000000000004 12.435 0.78926696737906388 -11.594999999999997 18.300000000000001 13.905000000000003 0.24403200050098642 12.365 11.175000000000002 10.705000000000002 3.2550000000000003 10.435 6.9350000000000005 0.40643107002101514 0.67391752935056826
decision_type=8 2 10 2 2 10 10 2 2 2 2 10 10 10 2 2 10 10 2
left_child=2 -2 4 -4 7 -6 -7 -1 10 -10 11 18 -13 14 -12 16 -3 -18 -9
right_child=1 15 3 -5 5 6 -8 8 9 -11 13 12 -14 -15 -16 -17 17 -19 -20
leaf_value=-0.0015859600051104437 0.0014312793933553454 -0.0035479646401708064 -0.00082824382793901649 0.0021227845842957606 0.0023088133796894568 2.9539758990477069e-05 -0.0029161939252713228 -0.0020239713669374247 -0.00060569998165389241 0.0035140881827291463 -0.00075012738996318962 0.0050806163659008292 0.00087176229661645632 -0.0012086565077841433 0.002875119595088408 -0.0005206408963078726 -0.0030630966541188758 0.001240535173342078 8.5459461690869464e-05
leaf_count=454 63 138 264 315 116 4632 64 144 64 89 77 56 52 988 58 231 54 54 265
internal_value=0 -0.349933 -0.0288562 0.238501 -0.0511267 0.0141654 -0.00295081 -0.194785 -0.123947 0.569635 -0.18783 0.048274 0.942662 -0.296573 0.243338 -0.456034 -0.73265 -0.277894 -0.194063
internal_count=8178 540 7638 579 7059 4812 4696 2247 1793 153 1640 517 108 1123 135 477 246 108 409
shrinkage=0.00326007


Tree=6
num_leaves=20
num_cat=0
split_feature=1 0 205 407 205 588 588 2 207 14 418 579 408 1 1 585 405 571 418
split_gain=10.8385 18.4908 16.4672 15.9906 13.0594 12.5205 12.7465 13.3765 10.1946 27.7792 8.81821 11.2631 24.3975 9.67171 9.29089 8.78602 16.1046 13.434 10.1442
threshold=7.2950000000000008 19.510000000000002 11.785000000000002 0.36093235178801319 5.0750000000000011 22.04000000000001 2.2450000000000014 0.52538892510386581 0.44772773106592784 10.345000000000002 14.235000000000001 15.435 0.62328918188904547 10.915000000000001 12.755000000000001 2.2650000000000001 24.245000000000001 0.80003114294612288 39.470000000000006
decision_type=2 2 2 10 2 8 10 2 2 2 10 10 10 2 2 10 10 10 10
left_child=2 5 4 -3 -1 6 7 10 9 -4 -2 12 13 -12 -14 16 -8 18 -17
right_child=1 3 8 -5 -6 -7 15 -9 -10 -11 11 -13 14 -15 -16 17 -18 -19 -20
leaf_value=0.0034561926328100607 -0.00047862193925671904 -0.0056457414604355934 8.0874344347003303e-05 -0.00052976017210525496 0.00090076619523601648 0.0039416865739156769 -0.0032387455525514182 -0.0009033457378186386 0.00075487638643606785 -0.005455137429351835 0.00028077377745356285 0.0028621293305969228 -0.0032300415677074343 0.0033425000719136512 0.00015070129568793583 -3.1204461006672288e-06 -5.2306002965962467e-05 0.0019923775290650422 0.0022696076864988416
leaf_count=116 133 50 148 86 1812 50 116 177 168 66 77 247 55 196 213 3892 272 196 108
internal_value=0 -0.0538452 -0.224504 0.702049 -0.303145 -0.071601 -0.0626685 -0.26546 0.168979 0.476637 -0.366583 -0.452425 -0.283179 -0.715405 0.157515 -0.0144942 0.290444 -0.0427191 -0.016682
internal_count=8178 5868 2310 136 1928 5732 5682 1098 382 214 921 788 541 273 268 4584 388 4196 4000
shrinkage=-0.00346252


Tree=7
num_leaves=20
num_cat=0
split_feature=212 6 769 769 8 205 205 4 6 0 407 2 6 573 205 206 569 569 234
split_gain=22.3 33.5658 24.3567 28.3782 13.5486 13.2773 10.101 9.39506 9.31544 7.77622 13.1476 17.4682 14.9987 13.1636 13.1415 13.2377 11.0345 10.7727 10.2696
threshold=0.26482427250886997 8.3650000000000002 7.5000000000000009 18.500000000000004 0.6118957366895722 6.1150000000000011 6.5050000000000008 7.4150000000000018 6.0750000000000011 10.045000000000002 0.31789375614857213 0.75623805106959574 12.015000000000002 18.220000000000002 10.995000000000003 10.325000000000001 23.935000000000006 18.155000000000005 -7.6099999999999985
decision_type=2 2 2 2 2 2 2 2 2 2 10 2 2 10 2 2 10 10 2
left_child=1 5 4 -4 9 7 -7 -1 -9 14 12 13 18 -12 15 17 -17 -2 -11
right_child=2 -3 3 -5 -6 6 -8 8 -10 10 11 -13 -14 -15 -16 16 -18 -19 -20
leaf_value=0.0006124442035156418 0.0025802290595407416 -0.0012145045821171556 0.0010092579580775881 -7.9837069598082128e-05 0.0016144048068567006 -0.00071643330011066293 0.0025854975469875321 0.0044624075927289508 0.0023367312973123868 -0.00030885198038338712 -0.00053306870195330596 -0.0037763843173744104 -0.0011151061697021098 0.0026400004204824214 -0.0034619460200470383 -0.0030840656082741971 0.00067743769738224041 -0.0011850337672371853 0.0017150957136865183
leaf_count=76 83 153 3408 1520 186 104 74 172 228 164 984 71 176 64 88 108 54 61 404
internal_value=0 -0.484691 -0.124636 -0.207476 0.0424509 -0.686675 -0.20229 -0.869373 -0.999722 0.0868478 0.0292824 0.171956 -0.1849 0.104899 0.35858 0.154834 0.562694 -0.30356 -0.348492
internal_count=8178 807 7371 4928 2443 654 178 476 400 2257 1863 1119 744 1048 394 306 162 144 568
shrinkage=-0.00324686


Tree=8
num_leaves=20
num_cat=0
split_feature=1 207 582 1 3 407 406 206 406 205 206 205 406 10 406 1 3 573 573
split_gain=26.9682 33.9173 20.2623 19.0443 16.3124 23.1018 18.93 17.1939 18.7978 14.0085 13.8642 20.2535 13.72 22.4871 13.5961 19.2117 17.7522 13.372 12.6397
threshold=7.8450000000000006 0.26482427250886997 0.41655031681229687 9.1450000000000014 0.24403200050098642 0.29018967534962803 10.705000000000002 15.745000000000003 23.785000000000004 6.1150000000000011 12.045000000000002 7.205000000000001 21.335000000000004 8.6850000000000005 21.805000000000003 15.005000000000001 0.52654738410339763 12.625000000000002 1.3750000000000007
decision_type=2 2 10 2 2 10 10 2 10 2 2 2 10 2 10 2 2 10 10
left_child=1 9 4 12 5 -3 -6 -7 -9 -1 14 -12 13 -2 15 16 -5 -14 -16
right_child=3 2 -4 10 6 7 -8 8 -10 -11 11 -13 17 -15 18 -17 -18 -19 -20
leaf_value=-0.0033885112164444174 -0.0013955059621865531 -0.001916260282457816 0.00022285621100213239 -0.0015198747599442493 0.00026027569512319265 -0.00076965472668797806 -0.0021415860937918927 7.5159162637692691e-05 0.0047971633916012385 -0.00098947341442126016 0.00068442338128028488 -0.0011906582147126039 0.00033463194146545128 0.0020554369818087019 -0.001940063314153958 -0.0036483422063448164 0.00069936511477321098 -0.002202856869565048 0.00041517706229958186
leaf_count=371 110 204 676 352 187 130 816 74 83 166 313 1765 438 405 118 101 320 126 1423
internal_value=0 -0.341558 -0.228044 -0.0916068 -0.362125 -0.0526097 -0.513693 0.323317 0.784339 -0.801496 -0.15198 -0.275446 0.153607 0.399398 -0.0411701 -0.266897 -0.140802 -0.0702812 0.0717621
internal_count=8178 2707 2170 5471 1494 491 1003 287 157 537 4392 2078 1079 515 2314 773 672 564 1541
shrinkage=0.00329755


Tree=9
num_leaves=20
num_cat=0
split_feature=770 769 770 769 405 11 10 588 577 577 579 10 11 406 4 10 405 408 406
split_gain=117.599 47.5743 95.3519 38.5339 31.9016 30.0093 26.8142 24.8663 21.5377 21.1574 20.4405 19.9603 19.0115 18.5047 18.2222 16.0102 15.7457 15.1261 14.0844
threshold=3.5000000000000004 7.5000000000000009 5.0000000000000009 11.500000000000002 18.055000000000003 7.8450000000000006 15.975000000000003 3.0049999999999994 0.41107818919415184 0.33483040848450618 14.575000000000001 15.565000000000003 17.500000000000004 10.705000000000002 15.815000000000003 15.745000000000003 9.0550000000000015 0.66688563596592842 17.575000000000003
decision_type=2 2 2 2 10 2 2 10 10 10 10 2 2 10 2 2 10 10 10
left_child=5 4 3 -3 -2 8 -4 10 11 12 18 13 -9 17 -10 -14 -12 -1 -7
right_child=1 2 6 -5 -6 7 -8 9 14 -11 16 -13 15 -15 -16 -17 -18 -19 -20
leaf_value=-0.0018765997998317213 0.0013126094768236265 0.0022757355280466312 -0.00032697191467039434 0.0052046838436467903 -0.0017975080495905228 -0.0012646631594807215 0.0030710947785564865 -0.00022036200779031564 -0.00069623134395958885 -0.00095291440019745972 0.00078388598815389465 0.00050343332605857247 0.00059403749539118701 0.0026673608896655978 0.0027975585841030111 0.0043215993868280381 0.0031674073677298111 0.0017100335055463579 0.00062565453575341983
leaf_count=69 413 269 347 376 161 242 108 1587 507 1582 321 945 132 385 60 61 146 112 355
internal_value=0 -0.623918 -0.870551 -1.36829 -0.151249 -0.0257212 -0.163553 0.0689784 -0.227846 0.155021 -0.203526 -0.355977 0.00163014 -0.660916 0.112468 -0.607579 -0.525011 -0.118443 0.0483927
internal_count=8178 1674 1100 645 574 6504 455 4426 2078 3362 1064 1511 1780 566 567 193 467 181 597
shrinkage=-0.00291139


Tree=10
num_leaves=20
num_cat=0
split_feature=217 573 22 573 410 423 412 6 423 6 6 569 206 6 206 573 206 209 205
split_gain=24.2904 20.729 17.687 13.6684 17.7224 13.9723 15.1524 16.1694 14.6948 24.5976 23.6409 18.6453 23.868 31.5616 30.0675 29.288 18.3813 15.1409 13.165
threshold=0.25787147348087813 19.220000000000002 0.64787778323510159 2.5750000000000006 17.985000000000003 0.4280703812850884 0.46677995372869707 10.435 0.34196372462864627 16.875000000000004 18.990000000000006 29.545000000000005 11.845000000000001 14.595000000000001 15.385000000000003 6.6500000000000021 16.645000000000003 -7.3199999999999985 7.455000000000001
decision_type=2 10 2 10 10 10 10 2 10 2 2 10 2 2 2 10 2 2 2
left_child=2 3 -1 4 -2 8 -7 -8 10 16 11 12 13 -5 15 -14 -10 -17 -18
right_child=1 -3 -4 5 -6 6 7 -9 9 -11 -12 -13 14 -15 -16 17 18 -19 -20
leaf_value=0.00033794434501051616 -0.0001299424889622056 -0.0018479292195485507 -0.0018724959003057515 0.00077236411383210584 -0.0013414817412260647 0.0017936339593298428 -0.001758069557469264 -0.00012218109208902552 0.0007666703520592818 -0.0017985992710170991 0.0023618255860008599 0.00024376325960812989 -0.00029135564044225877 -0.0021238379499226956 7.0652178970620415e-05 -0.000506912403882671 0.00082864762432311573 -0.0029177425204244228 -0.0020784578678817891
leaf_count=141 746 258 530 534 737 64 417 337 1513 146 101 1062 279 143 419 99 78 444 130
internal_value=0 -0.114602 -0.522057 -0.0942874 -0.272036 -0.0485667 -0.299645 -0.381664 -0.00703039 0.137924 -0.0949243 -0.127953 -0.249142 0.0596687 -0.417918 -0.644627 0.206183 -0.921101 -0.367557
internal_count=8178 7507 671 7249 1483 5766 818 754 4948 1867 3081 2980 1918 677 1241 822 1721 543 208
shrinkage=0.00269028


Tree=11
num_leaves=20
num_cat=0
split_feature=770 770 0 220 587 6 4 216 216 0 3 0 6 220 569 220 603 4 603
split_gain=102.728 27.9799 25.9064 15.7298 29.7655 16.8523 25.3453 15.275 24.0694 17.3794 37.8084 32.3046 25.3878 21.7738 20.3408 17.4298 17.4237 20.9981 15.6749
threshold=3.5000000000000004 5.0000000000000009 10.785000000000002 5.8250000000000011 0.23615692084078715 16.875000000000004 -1.9649999999999996 7.3050000000000006 9.9250000000000025 15.355000000000002 0.38167237589672204 17.445000000000004 9.1450000000000014 8.5050000000000008 28.405000000000005 11.615 11.605000000000002 15.815000000000003 11.605000000000002
decision_type=2 2 2 2 10 2 2 2 2 2 2 2 2 2 10 2 10 2 10
left_child=3 -2 -3 4 -1 7 -7 -5 18 10 15 -11 -12 16 -15 -10 17 -13 -9
right_child=1 2 -4 5 -6 6 -8 8 9 11 12 13 -14 14 -16 -17 -18 -19 -20
leaf_value=0.0013516742190525228 -0.0024836719210009164 0.0014641872478027926 -0.0017401589112901513 -0.001615801260437091 -0.0019849856630657359 -0.00073940334718876983 -0.0055571694893774256 0.00070264165688442484 -0.0027355341206289322 0.0014175093790957853 0.001348119544841424 0.0016598636090638321 -0.00039600496382969968 -0.0035548174644607078 0.00064475815368054403 -0.00022439143279603241 -0.0013635021402386724 -0.0019183385778248966 0.0031457738393670669
leaf_count=145 1195 161 299 232 465 487 50 741 369 737 434 341 1709 147 72 171 206 86 131
internal_value=0 -0.622515 -0.195151 -0.0607832 -0.377122 -0.0282707 -0.376289 0.00650629 0.0299094 -0.0332881 -0.134305 0.137497 -0.0136166 -0.132337 -0.688977 -0.614674 0.0604385 0.297721 0.339066
internal_count=8178 1655 460 6523 610 5913 537 5376 5144 4272 2683 1589 2143 852 219 540 633 427 872
shrinkage=0.00315544


Tree=12
num_leaves=20
num_cat=0
split_feature=210 578 575 769 769 206 1 584 582 15 1 213 213 584 769 407 209 578 206
split_gain=22.3541 22.6425 17.3649 15.2184 20.1577 12.2619 20.086 15.8452 12.1201 16.2905 20.5764 11.1425 17.5936 10.398 10.2902 9.94945 15.4326 9.56395 10.5879
threshold=5.8250000000000011 20.615000000000006 3.2750000000000004 9.5000000000000018 18.500000000000004 13.065000000000003 14.595000000000001 23.935000000000006 0.26872902250449354 12.265000000000002 10.585000000000003 0.70907028863356014 0.58912928223321404 6.705000000000001 10.500000000000002 0.32544368564399978 1.5450000000000002 19.220000000000002 17.745000000000001
decision_type=2 8 8 2 2 2 2 10 10 2 2 2 2 10 2 10 2 10 2
left_child=2 3 14 5 -5 6 8 -8 9 10 -2 12 -3 -6 -1 16 -10 18 -4
right_child=1 11 17 4 13 -7 7 -9 15 -11 -12 -13 -14 -15 -16 -17 -18 -19 -20
leaf_value=-0.0031064005027949051 0.0033493265917906218 0.0037547650893194925 0.001611787032670377 0.00089477900626875641 -0.0024837919291717482 0.00036058797562283783 0.0017289155788371841 -0.0017506848122845894 -2.3546673302750421e-06 -0.0020705896071586054 -0.00071303021442625705 0.0050215732367937718 -0.00083472362285991143 6.9766260839239296e-05 0.00081100622099879822 -0.0019687920267476297 -0.003563819444644845 -0.00041997857324099753 0.0035338856401903704
leaf_count=50 103 75 442 2673 75 1529 254 73 353 91 110 57 70 1379 75 453 62 72 182
internal_value=0 -0.112148 -0.469032 -0.0931296 -0.174835 0.0181456 0.151918 -0.298213 0.277152 -0.0805702 -0.39247 -0.790015 -0.481056 0.0194732 0.237879 0.402484 0.167628 -0.596548 -0.680587
internal_count=8178 7357 821 7155 4127 3028 1499 327 1172 304 213 202 145 1454 125 868 415 696 624
shrinkage=-0.00318771


Tree=13
num_leaves=20
num_cat=0
split_feature=770 769 770 1 405 15 1 577 770 15 14 15 217 571 405 407 575 407 1
split_gain=97.1898 43.5784 102.424 27.8072 25.9863 25.6894 22.955 22.3198 25.3285 21.9283 18.8363 17.7067 36.1849 17.1661 17.7929 18.2679 14.5844 14.0932 15.3795
threshold=3.5000000000000004 9.5000000000000018 5.0000000000000009 8.0250000000000004 18.575000000000003 15.975000000000003 16.875000000000004 0.41655031681229687 2.5000000000000004 15.565000000000003 -1.9649999999999996 17.445000000000004 0.33445418532622084 0.54953030156261407 8.7550000000000008 0.23106131430954882 9.6650000000000009 0.32995530982996163 9.0050000000000008
decision_type=2 2 2 2 10 2 2 10 2 2 2 2 2 10 8 10 10 10 2
left_child=3 4 -3 7 -2 17 13 9 -9 -1 -8 -11 -13 14 15 -5 -15 18 -4
right_child=1 2 5 6 -6 -7 10 8 -10 11 -12 12 -14 16 -16 -17 -18 -19 -20
leaf_value=-0.0023041356052132117 -0.0015803581657694698 -0.0050451559188161334 0.0013468005534174742 -0.0010392458278846882 0.0013263373839757571 -0.0036630971071846029 -0.00086160811245458734 -0.00055411458878935665 0.0026873549545421514 0.00059598781235936855 -0.0052220202198017471 -0.00059850224987174037 -0.0047345232253467569 2.6225650758138308e-05 -0.0015302487448686131 0.0017527828343229374 0.00099222906186754783 0.0012592658697078677 -0.0031112046061476826
leaf_count=607 508 507 57 210 192 106 457 442 145 335 51 543 115 1539 456 221 1380 210 97
internal_value=0 -0.622729 -0.899575 -0.0790317 -0.23718 -0.223952 0.0157717 -0.266267 0.0747843 -0.391611 -0.392773 -0.204277 -0.400487 0.0701954 -0.1806 0.118905 0.146383 0.0327981 -0.442913
internal_count=8178 1677 977 6501 700 470 4314 2187 587 1600 508 993 658 3806 887 431 2919 364 154
shrinkage=0.00329901


Tree=14
num_leaves=20
num_cat=0
split_feature=770 212 770 9 405 407 571 21 573 5 590 569 590 5 5 405 210 5 208
split_gain=101.707 33.6545 28.7026 25.1647 29.2139 18.1939 17.1548 16.442 20.1603 20.1327 18.3989 16.7671 17.1364 15.1732 15.0713 14.5383 15.0377 13.8127 30.7302
threshold=3.5000000000000004 0.29107809073562502 5.0000000000000009 2.5400000000000009 19.245000000000001 0.33344970121417433 0.69683757432735749 7.2950000000000008 3.0049999999999994 10.045000000000002 24.945000000000004 14.125000000000002 13.375000000000002 15.745000000000003 19.510000000000002 11.955000000000002 5.8250000000000011 17.445000000000004 0.67391752935056826
decision_type=2 2 2 2 10 10 10 2 10 2 10 8 10 2 2 10 2 2 2
left_child=7 -2 3 -3 -5 -4 -7 10 11 -10 13 12 15 -1 -11 -9 -17 -15 -19
right_child=1 2 5 4 -6 6 -8 8 9 14 -12 -13 -14 17 -16 16 -18 18 -20
leaf_value=-0.001481778847278506 -0.0033336084713208882 -0.0024095364881806082 -0.0012021874814714939 -0.0013582591550108749 0.0025534082867535051 0.0029305388406670233 -0.00042895331178325019 -0.0020550707170626957 0.0011979489252527703 5.2838596212911369e-05 0.00082309590414663195 -0.0013597666771145529 0.0019058446942109186 0.00084263091764347577 0.0024066140307630254 -0.0022554552944451562 0.00093386006114396381 -0.0029087155863397806 -5.8957066376581896e-05
leaf_count=592 295 639 183 300 77 102 97 130 705 2856 284 476 132 254 93 62 230 160 511
internal_value=0 -0.571155 -0.439741 -0.619821 -0.20006 0.0360655 0.466072 -0.0155409 0.048766 0.120147 -0.183523 -0.205114 0.0385572 -0.273951 0.0456475 -0.164278 0.092447 -0.108343 -0.264983
internal_count=8178 1693 1398 1016 377 382 199 6485 4684 3654 1801 1030 554 1517 2949 422 292 925 671
shrinkage=0.00277697


Tree=15
num_leaves=20
num_cat=0
split_feature=770 769 770 769 578 20 405 207 211 211 570 770 207 1 210 770 211 20 569
split_gain=60.7699 40.6499 61.1475 25.6056 13.8921 11.6257 10.6933 10.3765 8.65033 13.4344 13.15 10.3346 11.8053 9.70822 9.02332 31.5951 16.3251 10.5097 10.1922
threshold=3.5000000000000004 8.5000000000000018 5.0000000000000009 11.500000000000002 4.4450000000000012 9.7950000000000017 18.575000000000003 0.4853902953586498 7.3050000000000006 8.1950000000000021 1.1950000000000001 1.5000000000000002 0.58896839808240775 9.4550000000000018 11.975000000000003 1.0000000180025095e-35 15.925000000000002 10.305000000000001 20.995000000000001
decision_type=2 2 2 2 10 2 10 2 2 2 10 2 2 2 2 2 2 2 10
left_child=8 6 3 -3 -4 -6 -2 -8 11 13 -11 12 -1 -10 -12 17 18 -16 -17
right_child=1 2 4 -5 5 -7 7 -9 9 10 14 -13 -14 -15 15 16 -18 -19 -20
leaf_value=-0.0017209510618660588 -0.0006032486423794873 -0.0018758332696426007 0.0019059422645476035 -0.0049617051573580834 0.0014733423727815601 -0.0017227822494300068 0.0028810190776232458 -0.00087351802508628602 -0.0007681795876219573 0.0025354454876158074 -0.00013535548190138683 -0.0026074816182594333 0.0022596460513436209 0.0027028551079420486 0.00089441236669058103 0.0019697135642107503 0.0029715779785260805 -0.0026857090188285261 6.3044374437130744e-05
leaf_count=82 478 215 100 372 72 290 104 59 55 103 4807 135 69 162 56 208 196 162 453
internal_value=0 -0.423061 -0.676068 -1.12734 -0.124095 -0.317247 -0.0162594 0.449177 0.014167 0.0308308 0.0122982 -0.34702 0.0318496 0.539007 -0.000693722 0.174901 0.351372 -0.520397 0.195992
internal_count=8178 1690 1049 587 462 362 641 163 6488 6202 5985 286 151 217 5882 1075 857 218 661
shrinkage=0.00338589


Tree=16
num_leaves=20
num_cat=0
split_feature=770 770 216 5 407 5 5 770 205 610 1 4 214 584 610 410 610 583 1
split_gain=105.922 24.9467 17.912 14.7573 13.5586 13.3854 12.2944 22.8115 20.4508 18.0062 32.7831 36.116 25.3634 25.6159 18.2794 16.9583 16.4401 15.7947 15.8842
threshold=3.5000000000000004 5.0000000000000009 16.885000000000002 10.305000000000001 0.19181521752921327 20.910000000000004 11.495000000000003 1.5000000000000002 10.185 9.6650000000000009 6.5650000000000004 9.3550000000000022 1.0000000180025095e-35 23.455000000000002 2.2650000000000001 27.265000000000004 13.765000000000002 15.775 13.855000000000002
decision_type=2 2 2 2 10 2 2 2 2 10 2 2 2 10 10 10 10 10 2
left_child=3 5 -3 4 -1 -2 17 9 15 14 11 -11 13 -12 -8 -9 -13 18 -5
right_child=1 2 -4 6 -6 -7 7 8 -10 10 12 16 -14 -15 -16 -17 -18 -19 -20
leaf_value=-0.0011069165956661263 -0.0024217764722731859 0.0001088556895130404 -0.0034300986776387983 -0.00013591693059183013 0.00083863781885457696 0.00091674827531297099 0.0012522235269955492 -0.00052513167256507424 0.0016897161261420982 -0.0044215708895211023 -0.00067881964037308225 0.0023690222938722678 -0.0013900146211584012 0.0026037150450825266 -0.0015655784414658539 0.00097789997360015748 -0.0010071196978974108 -0.0038369764455730123 -0.0023177277902002151
leaf_count=178 1138 388 77 821 1464 57 117 724 533 115 140 85 144 380 709 606 255 68 179
internal_value=0 -0.547565 -0.144325 0.0259549 0.195712 -0.705719 -0.0314491 0.0242354 0.186534 -0.131397 0.0391616 -0.384306 0.327042 0.537151 -0.362959 0.0500141 -0.0516217 -0.229022 -0.163703
internal_count=8178 1660 465 6518 1642 1195 4876 3808 1863 1945 1119 455 664 520 826 1330 340 1068 1000
shrinkage=0.00320613


Tree=17
num_leaves=20
num_cat=0
split_feature=769 769 207 434 206 4 569 569 3 215 214 206 409 434 583 434 571 412 0
split_gain=19.5496 22.5368 11.9438 14.9039 10.6154 13.4486 11.4782 10.2982 9.94321 9.73339 9.43186 9.24447 8.95618 11.5732 8.42977 13.0476 12.9018 12.1397 20.5354
threshold=9.5000000000000018 18.500000000000004 0.29107809073562502 23.265000000000004 12.595000000000001 3.2550000000000003 31.115000000000006 30.585000000000004 0.28775896668683631 5.285000000000001 -12.554999999999998 16.275000000000002 20.915000000000003 34.175000000000004 2.5750000000000006 19.165000000000003 0.67069374066512799 0.65836871560436239 15.105000000000002
decision_type=2 2 2 10 2 2 10 10 2 2 2 2 10 8 10 10 10 10 2
left_child=2 9 3 -1 5 6 -3 12 -9 -2 -5 -12 13 -6 15 -4 -16 18 -18
right_child=1 4 14 10 7 -7 -8 8 -10 -11 11 -13 -14 -15 16 -17 17 -19 -20
leaf_value=-0.0019780095722358444 -0.002671961562647309 0.0005145434317740228 0.00032910950560507111 -0.0024169646403988734 -0.00088650584369728022 0.0030068617039778612 -0.0028690940254045951 -0.0015418491930047366 0.0015439074099004048 -0.00088672978490062133 -0.00083797653267329711 0.0020082760445072887 0.0011436842211233656 -0.0039069234681457033 0.00084306783111067006 -0.0017280977785859063 -0.00048364440064821494 -0.0015321236552298576 0.0018337032224446904
leaf_count=282 153 591 330 52 547 92 50 67 179 2914 91 131 87 66 1268 245 555 234 244
internal_value=0 -0.195943 0.00818809 -0.273756 -0.0048818 0.184184 0.0778188 -0.152478 0.217897 -0.30084 0.0714904 0.260415 -0.282977 -0.373518 0.0621883 -0.167956 0.119614 -0.0533664 0.0688221
internal_count=8178 4746 3432 556 1679 733 641 946 246 3067 274 222 700 613 2876 575 2301 1033 799
shrinkage=0.00323815


Tree=18
num_leaves=20
num_cat=0
split_feature=770 770 221 2 5 578 219 205 574 205 410 410 207 4 219 205 578 577 578
split_gain=91.8715 23.764 26.057 22.0975 26.8026 20.9524 18.4439 27.8711 19.1924 29.3967 25.3176 17.1886 27.435 24.2487 18.0499 15.9928 14.9971 13.5422 13.0692
threshold=3.5000000000000004 5.0000000000000009 12.595000000000001 0.61876226232675113 15.355000000000002 3.0049999999999994 -2.569999999999999 11.785000000000002 11.015000000000002 5.8250000000000011 36.675000000000004 33.025000000000013 0.45942325091653319 -2.5749999999999997 4.5750000000000011 11.615 4.4450000000000012 0.22905816390369699 12.625000000000002
decision_type=2 2 2 2 2 10 2 2 10 2 10 10 2 2 2 2 10 10 10
left_child=3 -2 16 5 15 -1 7 8 -6 17 18 14 13 -13 -7 -5 -3 -10 -11
right_child=1 2 -4 4 6 11 -8 -9 9 10 -12 12 -14 -15 -16 -17 -18 -19 -20
leaf_value=-0.00047418162074267081 -0.0019807448358419863 0.0031420153342814005 -0.0017321019698657786 -0.0020560112886544215 0.0028423222725881491 0.00075291289642810612 -0.0021200968421564059 0.00328856292186337 0.00058485340278182599 0.00070975187363749807 -0.0030298197650606342 0.0014739574261487106 0.00064308954147208289 -0.0024305149998204165 -0.0022343549389211405 1.5273284711498312e-05 -8.6867644553230986e-05 -0.0025202644531483387 -0.00063783643554831348
leaf_count=1172 1195 70 242 469 66 2174 143 78 58 797 78 64 382 243 68 165 142 234 338
internal_value=0 -0.565094 -0.166169 -0.0312093 -0.186637 0.0602754 -0.0591601 0.0024606 -0.0568381 -0.104482 0.0347979 0.152806 -0.13179 -0.585637 0.240235 -0.549014 0.354805 -0.68839 0.111827
internal_count=8178 1649 454 6529 2426 4103 1792 1649 1571 1505 1213 2931 689 307 2242 634 212 292 1135
shrinkage=0.00276101


Tree=19
num_leaves=20
num_cat=0
split_feature=6 571 6 0 578 215 215 422 422 215 422 207 208 207 3 578 9 209 578
split_gain=23.7113 23.5643 18.4355 17.2262 14.7949 18.8169 20.2509 13.429 13.3444 24.5882 17.8231 12.5945 12.0928 19.244 17.1777 13.9463 11.5185 12.631 11.4785
threshold=7.2950000000000008 0.58958764537748876 16.875000000000004 15.745000000000003 2.5750000000000006 8.0050000000000008 5.285000000000001 17.985000000000003 25.885000000000002 11.785000000000002 10.705000000000002 0.37642733109214421 0.67391752935056826 0.2717726155205083 0.25133061326214079 11.375000000000002 14.055000000000003 -12.554999999999998 11.855000000000002
decision_type=2 8 2 2 10 2 2 10 10 2 8 2 2 2 2 10 2 2 10
left_child=1 -1 4 -4 5 6 -2 -8 10 12 -3 -7 15 16 -15 -10 17 -14 -6
right_child=2 8 3 -5 18 11 7 -9 9 -11 -12 -13 13 14 -16 -17 -18 -19 -20
leaf_value=-6.0814093369045438e-06 -0.0020873451593271734 -0.00021902537369963826 -0.00066265399309659641 -0.0030546971768223609 0.00025742775626403101 -0.0035104742055823862 0.001851431022691038 -0.00028184567541109665 -0.0031493033783646044 0.0028236724265237587 -0.0019693440624144075 -0.00093390193494070353 -0.0025348107180015516 0.0014572855182527506 -0.0018865401931980697 0.00020665232350718264 -0.0034533838162831908 0.0012060553231246691 -0.00036050707216528382
leaf_count=687 84 215 521 104 2813 61 180 164 118 55 758 668 52 174 59 52 70 55 1288
internal_value=0 -0.319073 -0.0734229 -0.407718 -0.0337523 -0.240869 0.101362 0.321732 -0.455541 -0.220598 -0.609262 -0.442332 -0.3451 -0.150836 0.235816 -0.814962 -0.666765 -0.23279 0.024459
internal_count=8178 2295 5883 625 5258 1157 428 344 1608 635 973 729 580 410 233 170 177 107 4101
shrinkage=0.00259593


Tree=20
num_leaves=20
num_cat=0
split_feature=11 225 576 407 208 569 406 20 216 209 11 216 216 569 569 407 11 20 209
split_gain=25.6973 16.4898 13.844 21.7098 13.7916 13.1568 17.566 15.3376 24.3386 13.4893 13.1301 15.1253 26.1652 24.6011 21.1547 18.8517 15.6903 16.3851 14.2446
threshold=7.2950000000000008 5.8250000000000011 0.58958764537748876 0.16497919698305019 0.72851712504344557 25.855000000000004 34.175000000000004 15.565000000000003 14.375000000000002 -12.554999999999998 14.595000000000001 12.265000000000002 7.3050000000000006 32.395000000000003 30.045000000000005 0.34196372462864627 12.275 11.935 -4.9850000000000003
decision_type=2 2 10 10 2 10 10 2 2 2 2 2 2 10 10 10 2 2 2
left_child=1 4 3 -3 -1 6 7 -4 -9 -7 11 12 -2 -14 15 -13 17 -17 -12
right_child=10 2 5 -5 -6 9 -8 8 -10 -11 18 14 13 -15 -16 16 -18 -19 -20
leaf_value=-0.00053588557506829945 -0.0014070482654468595 -0.0019313584516268804 -0.0016374448267347467 0.00073168965684959554 -0.0032629577040862731 0.0012908086591955708 -0.002531179696135125 -0.0034410218710625847 0.0013501082546517418 -0.0021289722022323088 0.0018264933510381165 -0.0015505998275429282 0.00071084191385216975 -0.0027663020145968489 0.00071416392703400455 0.0016262667171680768 -0.0020759575656769981 -0.00036927855051108568 -0.0010304511889288369
leaf_count=120 314 171 167 460 226 53 145 50 325 572 78 725 1969 86 521 220 163 750 1063
internal_value=0 -0.322923 -0.24924 0.00305358 -0.741549 -0.37127 -0.172364 -0.00210272 0.229828 -0.590286 -0.0673685 -0.0192651 0.0976911 0.181477 -0.135958 -0.238518 -0.0727335 0.0270557 -0.267882
internal_count=8178 2289 1943 631 346 1312 687 542 375 625 5889 4748 2369 2055 2379 1858 1133 970 1141
shrinkage=0.00311468


Tree=21
num_leaves=20
num_cat=0
split_feature=770 214 770 9 1 572 573 9 3 405 0 0 212 412 414 573 0 208 214
split_gain=64.9053 21.9468 28.8733 28.0873 21.8616 25.7627 23.6064 18.0773 18.036 17.5348 16.625 18.6192 34.9133 16.5845 15.5852 14.8596 16.2618 14.6658 15.552
threshold=3.5000000000000004 -9.6949999999999967 5.0000000000000009 2.5400000000000009 7.2950000000000008 0.41655031681229687 3.0049999999999994 15.815000000000003 0.47996129656507014 18.575000000000003 15.745000000000003 17.185000000000006 0.33445418532622084 0.58306431107552592 10.705000000000002 4.4450000000000012 9.7950000000000017 0.74874157999000135 4.5750000000000011
decision_type=2 2 2 2 2 10 10 2 2 10 2 2 2 10 10 10 2 2 2
left_child=4 -2 3 -3 5 10 8 -7 -6 -5 14 -12 -13 -8 -1 -4 -17 18 -15
right_child=1 2 15 9 6 7 13 -9 -10 -11 11 12 -14 17 -16 16 -18 -19 -20
leaf_value=-0.00057483614689099688 -0.0031418344634085724 -0.0024482364974697372 0.0022426925154789275 -0.0012062621534680922 0.00094891507757617199 0.00081662852509583272 -0.00046579677344985254 -0.0028442661174741348 -0.0010976807023880741 0.0016335985696159575 0.00097750907717848398 -0.00049437319215732628 -0.0043344661693205458 0.00068000672389216868 -0.00280609227184914 0.0020286572545500834 -0.0013161386952702761 -0.0018686206699320349 -0.0020376343686094311
leaf_count=179 243 660 100 297 192 461 801 55 853 109 201 498 102 2644 327 71 213 92 80
internal_value=0 -0.494837 -0.399609 -0.57351 -0.0494298 -0.239976 0.0248036 0.14562 -0.245907 -0.150348 -0.393147 -0.208206 -0.390251 0.102952 -0.687009 0.0790933 -0.16286 0.177385 0.204758
internal_count=8178 1693 1450 1066 6485 1823 4662 516 1045 406 1307 801 600 3617 506 384 284 2816 2724
shrinkage=0.00293327


Tree=22
num_leaves=20
num_cat=0
split_feature=769 7 4 410 208 6 205 206 769 574 574 206 6 578 572 208 205 410 206
split_gain=25.7278 16.1206 22.0933 23.0928 17.5078 16.4686 16.5012 15.4823 14.546 11.6412 16.8445 16.2249 12.4162 18.6609 11.9428 11.0782 10.9363 10.9146 16.4949
threshold=8.5000000000000018 0.61876226232675113 4.3350000000000017 16.755000000000006 0.55672016708150951 15.005000000000001 14.265000000000002 12.045000000000002 16.500000000000004 30.045000000000005 13.735000000000001 12.925000000000002 7.2950000000000008 9.4050000000000029 0.36362013292187734 0.51470326892300544 7.3350000000000009 25.885000000000002 14.185
decision_type=2 2 2 10 2 2 2 2 2 10 10 2 2 10 10 2 2 10 2
left_child=1 2 3 -1 5 15 -7 8 -2 10 -9 -11 13 -13 -14 -5 -10 -12 -19
right_child=7 -3 -4 4 -6 6 -8 9 16 11 17 12 14 -15 -16 -17 -18 18 -20
leaf_value=-0.0014839674661761002 0.00086141569493174315 0.00065590437532889667 -0.0033472535139768998 -0.00012995823437921724 0.0013322583153781314 0.0020300558516472217 -0.0014161575240744099 1.217432063051534e-06 -0.0017118574882910085 0.0030410414379087891 0.0020621835010724773 -0.00106129273835598 -0.0021443927574877381 0.0017754789786666087 0.0002514049222319296 -0.0018603966537900116 9.8095967890600243e-05 0.0022123855757635218 0.00039465437208832964
leaf_count=419 1056 1163 95 417 429 208 82 338 182 93 977 141 151 316 222 261 716 333 579
internal_value=0 -0.0163297 0.100221 0.0498324 -0.0765534 0.0769564 -0.33509 -0.252892 -0.108391 -0.342734 -0.424524 -0.145312 -0.0537081 -0.284528 0.228062 0.252714 0.0851421 -0.50053 -0.335749
internal_count=8178 3074 1911 1816 1397 968 290 5104 1954 3150 2227 923 830 457 373 678 898 1889 912
shrinkage=-0.00315048


Tree=23
num_leaves=20
num_cat=0
split_feature=770 2 2 0 209 770 9 573 569 573 573 569 215 569 410 209 215 6 209
split_gain=76.8708 20.3297 30.9111 22.3892 19.3589 17.5653 26.9953 18.4387 18.038 17.1657 18.3881 16.529 15.6048 19.9786 19.7991 22.8065 13.7968 13.6476 16.072
threshold=3.5000000000000004 0.61876226232675113 0.57229791043311928 15.355000000000002 -9.6949999999999967 5.0000000000000009 2.5400000000000009 4.4450000000000012 13.325000000000001 19.220000000000002 5.165 34.630000000000003 6.1150000000000011 11.985000000000001 37.555000000000007 -2.569999999999999 11.785000000000002 16.875000000000004 -3.5749999999999997
decision_type=2 2 2 2 2 2 2 10 10 8 10 10 2 10 10 2 2 2 2
left_child=1 2 9 11 -2 6 -6 -7 -8 10 -1 -3 13 -5 15 16 -14 18 -12
right_child=4 3 -4 12 5 7 8 -9 -10 -11 17 -13 14 -15 -16 -17 -18 -19 -20
leaf_value=-0.00043574935263461832 -0.0026540844944410035 -0.0018999923335381082 0.0013227433679887017 0.0016486147615538331 -0.0020618552421373948 0.0015662360801083797 0.0020629326526032266 -0.00088426403954848314 -0.00088269069637783582 -0.0026071869946686426 -0.00049439345857666057 -0.00016169009555504812 0.00027286570655468635 -0.0014724314497612894 -0.0021614166590693609 -0.0018876314813331453 0.0024851449290687134 -0.00069023909726440382 0.00071116224899832586
leaf_count=1627 243 422 423 59 665 107 62 272 327 67 351 205 1036 382 95 117 77 311 1330
internal_value=0 -0.0637441 0.0236907 -0.214297 -0.549818 -0.459097 -0.596873 -0.0789403 -0.169233 -0.0361026 -0.017047 -0.547606 -0.0964206 -0.433771 0.015502 0.0851012 0.175177 0.115285 0.189042
internal_count=8178 6502 4109 2393 1676 1433 1054 379 389 3686 3619 627 1766 441 1325 1230 1113 1992 1681
shrinkage=0.00243001


Tree=24
num_leaves=20
num_cat=0
split_feature=770 769 770 405 769 0 411 216 21 598 21 4 570 216 0 21 405 594 212
split_gain=71.5024 40.073 93.2925 25.5318 20.1484 18.7596 19.7103 14.842 12.1598 19.0122 15.6645 26.6216 13.925 14.161 16.3788 17.5165 17.3939 14.6326 14.0739
threshold=3.5000000000000004 8.5000000000000018 5.0000000000000009 19.245000000000001 11.500000000000002 10.785000000000002 0.35708039698965333 16.885000000000002 8.0250000000000004 3.0049999999999994 16.875000000000004 -1.9649999999999996 9.6650000000000009 10.325000000000001 11.645000000000001 13.855000000000002 12.865 29.545000000000005 0.32641269384736399
decision_type=2 2 2 10 2 2 10 2 2 10 2 2 10 2 2 2 10 10 2
left_child=8 3 4 -2 -3 6 -4 -7 -1 -10 12 -12 -11 -14 16 17 -15 18 -16
right_child=1 2 5 -5 -6 7 -8 -9 9 10 11 -13 13 14 15 -17 -18 -19 -20
leaf_value=0.00050323780992812524 0.0010529647756787803 0.0022397321701608671 0.00062822650174736681 -0.0015020830677477783 0.004548373879031062 0.0003971369053114684 -0.003458834116342882 0.0034385455438559029 0.00063948935338890129 1.4476996513674611e-05 0.00027353084930957326 0.00470776844057716 -0.0017935261104814024 0.00086566357714637835 -0.0018630933670710146 -0.0032191728654634498 -0.0017788451367318694 -0.0018092997346932124 0.00095977779214939793
leaf_count=2193 474 191 80 172 357 220 74 71 1060 1431 354 50 351 389 81 105 103 210 212
internal_value=0 -0.526504 -0.783755 -0.133376 -1.3449 -0.0992656 0.480103 -0.407658 -0.0542904 0.00943225 0.0865025 -0.294418 0.139817 0.282791 0.16728 0.39352 -0.112248 0.233944 -0.0647092
internal_count=8178 1639 993 646 548 445 154 291 6539 4346 3286 404 2882 1451 1100 608 492 503 293
shrinkage=-0.00278111


Tree=25
num_leaves=20
num_cat=0
split_feature=770 770 15 220 570 578 579 407 15 1 15 3 578 211 220 15 15 220 424
split_gain=80.6382 18.2467 22.0671 16.0323 27.3973 13.9933 16.6433 32.2659 12.6204 12.0346 15.96 17.254 10.2645 11.3517 10.0949 9.43375 15.5544 13.762 14.3221
threshold=3.5000000000000004 5.0000000000000009 11.935 5.8250000000000011 3.2750000000000004 19.220000000000002 22.975000000000005 0.25228789090307263 20.175000000000004 6.4050000000000011 20.910000000000004 0.19962000923814197 17.235000000000003 18.300000000000001 7.3350000000000009 10.785000000000002 8.6850000000000005 10.855000000000002 0.68268304056397844
decision_type=2 2 2 2 10 8 10 10 2 2 2 2 10 2 2 2 2 2 10
left_child=3 8 14 4 -1 6 7 -5 -2 10 11 -8 13 -6 -3 16 -9 -18 -19
right_child=1 2 -4 5 12 -7 9 15 -10 -11 -12 -13 -14 -15 -16 -17 17 18 -20
leaf_value=0.0019770281496869447 -0.0025743998706728713 0.003658334194144513 -0.0022353925328292934 -0.0030641515952653186 -0.0018176696254616231 -0.0017755440886342399 0.0036732963973833549 -0.0011942239960734194 0.0005943816269877182 0.00083329119955552152 -0.0042006365406270767 -0.00035243992183489468 0.00065671229629752422 -0.0047609251897453462 3.1763512302431699e-05 -0.00044642438799295824 0.0015000178117432958 0.00047627387830474619 -0.0030451685519855987
leaf_count=107 1128 56 232 203 321 237 61 255 72 1673 51 634 67 91 165 1887 591 268 79
internal_value=0 -0.544315 -0.191886 -0.0430777 -0.369452 -0.0109691 0.00950632 -0.0861037 -0.67878 0.139374 -0.081332 0.000729634 -0.578601 -0.702322 0.270319 -0.0344447 0.112056 0.235009 -0.0929157
internal_count=8178 1653 453 6525 586 5939 5702 3283 1200 2419 746 695 479 412 221 3080 1193 938 347
shrinkage=0.00351018


Tree=26
num_leaves=20
num_cat=0
split_feature=770 11 229 770 9 409 569 408 230 570 572 409 230 588 10 10 229 230 253
split_gain=79.8639 23.875 19.8313 20.0471 25.8278 23.0563 18.3029 32.0331 18.3723 17.3419 13.9368 13.0362 13.0187 12.1658 14.2831 11.0589 13.6768 24.1489 14.1491
threshold=3.5000000000000004 8.0250000000000004 -9.6949999999999967 5.0000000000000009 2.5400000000000009 18.575000000000003 22.975000000000005 0.74823553313391544 7.455000000000001 24.945000000000004 0.31951451249569862 2.1550000000000007 10.305000000000001 4.4450000000000012 9.7950000000000017 15.355000000000002 -2.569999999999999 10.855000000000002 0.67391752935056826
decision_type=2 2 2 2 2 10 10 8 2 10 10 10 2 10 2 2 2 2 2
left_child=1 9 -2 4 -4 10 7 -3 -8 15 -6 12 -11 -5 -15 -1 17 18 -17
right_child=2 6 3 13 5 -7 8 -9 -10 11 -12 -13 -14 14 -16 16 -18 -19 -20
leaf_value=-0.001522652354865767 -0.0033392226605454293 -6.5058577468633854e-06 -0.0026102981817445279 0.00165403054530904 -0.003999504474988441 0.0019926810676961859 0.0024618653282637271 -0.0029202525099253571 0.00042046673752091449 -0.001876584302441642 -0.00071899806010716392 0.0025106658559471847 0.0013091317205038916 0.0016906554276902225 -0.0016182096781103513 -0.0020582943198712918 -0.0029806004700786274 0.0025761846507089217 -0.00023051096856640811
leaf_count=700 235 2694 634 106 67 100 198 152 1284 98 228 105 106 67 222 213 83 100 786
internal_value=0 -0.0447424 -0.541886 -0.450879 -0.603124 -0.192291 0.0431676 -0.0532862 0.228446 -0.218799 -0.482156 0.233019 -0.0730009 -0.058422 -0.279953 -0.293212 -0.169848 -0.108496 -0.204437
internal_count=8178 6519 1659 1424 1029 395 4328 2846 1482 2191 295 309 204 395 289 1882 1182 1099 999
shrinkage=0.00303376


Tree=27
num_leaves=20
num_cat=0
split_feature=217 206 205 2 19 406 217 2 405 569 19 6 573 209 6 6 6 569 208
split_gain=11.1477 16.525 13.281 11.6643 10.7153 10.5643 14.1439 26.7875 9.88163 22.2054 16.3212 20.8922 17.5107 17.1714 16.2684 17.0075 15.8289 30.8371 14.2783
threshold=0.29107809073562502 18.300000000000001 7.0750000000000011 0.63916510725975317 13.345000000000002 19.165000000000003 0.2717726155205083 0.79069231346564173 25.095000000000002 6.705000000000001 -2.9349999999999992 13.495000000000003 13.195000000000002 0.41500000000000009 18.990000000000006 14.595000000000001 16.875000000000004 20.135000000000002 0.45257615165978454
decision_type=2 2 2 2 2 10 2 2 8 10 2 2 10 2 2 2 2 10 2
left_child=3 2 -2 -1 -5 -6 7 -7 9 18 12 13 14 -12 15 -11 17 -13 -4
right_child=1 -3 8 4 5 6 -8 -9 -10 10 11 16 -14 -15 -16 -17 -18 -19 -20
leaf_value=0.00052215925608946226 0.00067155278164822353 0.0020437309586685236 -0.0001101571336022735 -0.0018080021810572249 -0.0031419986024092505 0.0023602771832110943 0.0029612174779193997 -0.0037439621109746054 -0.0014519115018977657 0.00029599642976877431 -0.00050882147019775227 -0.0006559847383611027 -0.0038212344329392588 0.00079770937645663677 0.0015896346826719645 -0.0021711856237218662 -0.0017809113947278837 0.0048167125445406078 0.0047008416507868219
leaf_count=261 859 192 63 742 57 79 91 87 442 250 3262 95 130 697 134 450 60 144 83
internal_value=0 -0.0413851 -0.0586652 -0.254668 -0.355003 -0.0260826 0.156444 -0.214802 -0.0945655 -0.0694434 -0.0916332 -0.036413 -0.336195 -0.0761107 -0.226028 -0.353591 0.490634 0.725229 0.723714
internal_count=8178 6861 6669 1317 1056 314 257 166 5810 5368 5222 4258 964 3959 834 700 299 239 146
shrinkage=0.00364836


Tree=28
num_leaves=20
num_cat=0
split_feature=770 769 770 5 407 405 1 205 573 572 1 2 205 5 5 572 209 5 205
split_gain=84.9633 57.5372 91.1381 22.4056 20.4496 17.1567 17.1001 18.5922 17.3694 20.1954 19.3942 17.7466 17.508 17.3226 15.7942 15.3052 24.6882 14.5559 14.2933
threshold=3.5000000000000004 9.5000000000000018 5.0000000000000009 10.415000000000001 0.33344970121417433 20.315000000000001 7.8450000000000006 11.785000000000002 3.0049999999999994 0.33935440769115172 16.875000000000004 0.52538892510386581 14.265000000000002 15.565000000000003 11.365 0.41655031681229687 -7.0650000000000004 13.905000000000003 11.975000000000003
